{"learner":{"attributes":{"scikit_learn":"{\"_estimator_type\": \"classifier\"}"},"feature_names":["home_goal_points","home_deffence_points","home_attack_points","home_agi","home_save_points","home_chance_construct_rate","home_shooting_success_rate","home_capture_points","home_pass_points","home_dribble_points","away_goal_points","away_deffence_points","away_attack_points","away_agi","away_save_points","away_chance_construct_rate","away_shooting_success_rate","away_capture_points","away_pass_points","away_dribble_points","diff_goal_points","diff_attack_points","diff_deffence_points","diff_agi","diff_save_points","diff_chance_construct_rate","diff_shooting_success_rate","diff_capture_points","diff_pass_points","diff_dribble_points","home_attack_vs_away_defense","away_attack_vs_home_defense","home_overall","away_overall","diff_overall"],"feature_types":["float","float","float","float","float","float","float","float","float","float","float","float","float","float","float","float","float","float","float","float","float","float","float","float","float","float","float","float","float","float","float","float","float","float","float"],"gradient_booster":{"model":{"cats":{"enc":[],"feature_segments":[],"sorted_idx":[]},"gbtree_model_param":{"num_parallel_tree":"1","num_trees":"300"},"iteration_indptr":[0,3,6,9,12,15,18,21,24,27,30,33,36,39,42,45,48,51,54,57,60,63,66,69,72,75,78,81,84,87,90,93,96,99,102,105,108,111,114,117,120,123,126,129,132,135,138,141,144,147,150,153,156,159,162,165,168,171,174,177,180,183,186,189,192,195,198,201,204,207,210,213,216,219,222,225,228,231,234,237,240,243,246,249,252,255,258,261,264,267,270,273,276,279,282,285,288,291,294,297,300],"tree_info":[0,1,2,0,1,2,0,1,2,0,1,2,0,1,2,0,1,2,0,1,2,0,1,2,0,1,2,0,1,2,0,1,2,0,1,2,0,1,2,0,1,2,0,1,2,0,1,2,0,1,2,0,1,2,0,1,2,0,1,2,0,1,2,0,1,2,0,1,2,0,1,2,0,1,2,0,1,2,0,1,2,0,1,2,0,1,2,0,1,2,0,1,2,0,1,2,0,1,2,0,1,2,0,1,2,0,1,2,0,1,2,0,1,2,0,1,2,0,1,2,0,1,2,0,1,2,0,1,2,0,1,2,0,1,2,0,1,2,0,1,2,0,1,2,0,1,2,0,1,2,0,1,2,0,1,2,0,1,2,0,1,2,0,1,2,0,1,2,0,1,2,0,1,2,0,1,2,0,1,2,0,1,2,0,1,2,0,1,2,0,1,2,0,1,2,0,1,2,0,1,2,0,1,2,0,1,2,0,1,2,0,1,2,0,1,2,0,1,2,0,1,2,0,1,2,0,1,2,0,1,2,0,1,2,0,1,2,0,1,2,0,1,2,0,1,2,0,1,2,0,1,2,0,1,2,0,1,2,0,1,2,0,1,2,0,1,2,0,1,2,0,1,2,0,1,2,0,1,2,0,1,2,0,1,2,0,1,2,0,1,2,0,1,2,0,1,2,0,1,2],"trees":[{"base_weights":[-5.402629E-7,-1.8132065E-1,9.841474E-2,-3.0141803E-3,-4.426156E-1,6.379282E-1,6.1778087E-2,-2.6081705E-1,2.2694749E-1,-4.960879E-1,5.7288837E-2,-4.1265175E-2,7.995767E-1,5.47657E-1,1.7397411E-2,7.275459E-1,-3.5310957E-1,4.785832E-1,-3.193924E-1,-5.334155E-1,3.712096E-2,-3.6497068E-2,9.49505E-1,-1.0653596E-1,8.4638757E-1,3.8648197E-1,-3.680334E-2,9.722116E-3,1.0216049E-1,-5.9933018E-2,8.732807E-3,7.3729225E-2,-8.295111E-3,3.712096E-2,-4.4514246E-2,-9.245132E-3,-6.099629E-2,-2.0721075E-3,1.10332064E-1,-5.497702E-2,1.0216049E-1,1.00647606E-1,-3.6497068E-2,-1.6632587E-2,7.701656E-2,-6.0442068E-2,-4.6799384E-4],"categories":[],"categories_nodes":[],"categories_segments":[],"categories_sizes":[],"default_left":[0,0,0,0,0,0,0,0,0,0,0,0,0,0,0,0,0,0,0,0,0,0,0,0,0,0,0,0,0,0,0,0,0,0,0,0,0,0,0,0,0,0,0,0,0,0,0],"id":0,"left_children":[1,3,5,7,9,11,13,15,17,19,-1,-1,21,23,25,27,29,31,33,35,-1,-1,37,39,41,43,45,-1,-1,-1,-1,-1,-1,-1,-1,-1,-1,-1,-1,-1,-1,-1,-1,-1,-1,-1,-1],"loss_changes":[6.1887913E0,5.683406E0,4.4039755E0,4.4184785E0,2.971222E0,2.7393355E0,4.5536017E0,3.4616258E0,5.569365E0,1.7372112E0,0E0,0E0,2.5527754E0,3.545E0,3.913811E0,5.17385E-1,3.60989E0,4.038039E0,1.2962791E0,1.4960737E0,0E0,0E0,1.7349615E0,3.7769196E0,2.7425537E0,5.440822E0,3.113075E0,0E0,0E0,0E0,0E0,0E0,0E0,0E0,0E0,0E0,0E0,0E0,0E0,0E0,0E0,0E0,0E0,0E0,0E0,0E0,0E0],"parents":[2147483647,0,0,1,1,2,2,3,3,4,4,5,5,6,6,7,7,8,8,9,9,12,12,13,13,14,14,15,15,16,16,17,17,18,18,19,19,22,22,23,23,24,24,25,25,26,26],"right_children":[2,4,6,8,10,12,14,16,18,20,-1,-1,22,24,26,28,30,32,34,36,-1,-1,38,40,42,44,46,-1,-1,-1,-1,-1,-1,-1,-1,-1,-1,-1,-1,-1,-1,-1,-1,-1,-1,-1,-1],"split_conditions":[-1.021E1,5.568E1,6.521E1,1.178E1,1.3261E2,4.83E0,6.4E0,-5.3E0,5.12E1,1.41E1,5.7288837E-2,-4.1265175E-2,4.09E1,-2.3E0,-2.4821E2,1.955E1,1.1478791E0,1.072E1,-3.573E1,-1.346E1,3.712096E-2,-3.6497068E-2,8.856E1,2.018E1,2.892E1,-8.92E0,5.9195E2,9.722116E-3,1.0216049E-1,-5.9933018E-2,8.732807E-3,7.3729225E-2,-8.295111E-3,3.712096E-2,-4.4514246E-2,-9.245132E-3,-6.099629E-2,-2.0721075E-3,1.10332064E-1,-5.497702E-2,1.0216049E-1,1.00647606E-1,-3.6497068E-2,-1.6632587E-2,7.701656E-2,-6.0442068E-2,-4.6799384E-4],"split_indices":[22,27,8,28,10,9,6,26,13,5,0,0,13,25,27,0,31,4,22,34,0,0,11,22,22,21,7,0,0,0,0,0,0,0,0,0,0,0,0,0,0,0,0,0,0,0,0],"split_type":[0,0,0,0,0,0,0,0,0,0,0,0,0,0,0,0,0,0,0,0,0,0,0,0,0,0,0,0,0,0,0,0,0,0,0,0,0,0,0,0,0,0,0,0,0,0,0],"sum_hessian":[3.4481458E2,1.21014786E2,2.2379977E2,7.2531296E1,4.8483486E1,1.3187509E1,2.1061227E2,3.4132374E1,3.8398922E1,4.6544147E1,1.9393395E0,1.5514716E0,1.1636037E1,1.667832E1,1.9393394E2,2.3272073E0,3.1805168E1,2.6375017E1,1.2023905E1,4.4992676E1,1.5514716E0,1.1636037E0,1.0472433E1,5.4301505E0,1.1248169E1,2.404781E1,1.6988614E2,1.1636037E0,1.1636037E0,2.016913E1,1.1636037E1,1.7841923E1,8.533093E0,1.5514716E0,1.0472433E1,6.981622E0,3.8011055E1,1.5514716E0,8.920961E0,4.2665467E0,1.1636037E0,1.0084565E1,1.1636037E0,1.0084565E1,1.3963244E1,8.145226E0,1.617409E2],"tree_param":{"num_deleted":"0","num_feature":"35","num_nodes":"47","size_leaf_vector":"1"}},{"base_weights":[5.3548933E-7,-2.2072004E-1,2.0044321E-1,7.710057E-1,-2.5833502E-1,3.3116985E-2,4.1849107E-1,9.915225E-2,-1.1173645E-2,4.7837934E-1,-2.9653522E-1,-2.2934768E-1,1.3056456E-1,5.176561E-1,5.7373982E-2,-5.1718127E-2,7.0251614E-1,2.4141273E-2,-3.414184E-1,6.226575E-2,-3.2459387E-1,6.8732464E-1,2.9429017E-2,3.1969658E-1,7.1985596E-1,-3.7046117E-1,4.803278E-1,8.80064E-2,-1.1173645E-2,-4.555401E-2,4.336476E-2,1.9467417E-2,-3.6706727E-2,1.5583389E-3,-6.009329E-2,9.057223E-2,-1.401475E-2,-2.963844E-2,1.7657505E-2,7.355645E-2,1.4798621E-2,-3.944158E-2,8.2531646E-2,2.3150206E-2,-6.454468E-2,-5.7551634E-2,7.497491E-2],"categories":[],"categories_nodes":[],"categories_segments":[],"categories_sizes":[],"default_left":[0,0,0,0,0,0,0,0,0,0,0,0,0,0,0,0,0,0,0,0,0,0,0,0,0,0,0,0,0,0,0,0,0,0,0,0,0,0,0,0,0,0,0,0,0,0,0],"id":1,"left_children":[1,3,5,7,9,11,13,-1,-1,15,17,19,21,23,25,-1,27,29,31,-1,33,35,37,39,41,43,45,-1,-1,-1,-1,-1,-1,-1,-1,-1,-1,-1,-1,-1,-1,-1,-1,-1,-1,-1,-1],"loss_changes":[1.9313816E1,7.9496317E0,8.333389E0,1.6375666E0,5.796358E0,3.3685627E0,3.5244808E0,0E0,0E0,2.6588712E0,2.766447E0,3.099615E0,5.37573E0,2.8817139E0,4.2507935E0,0E0,1.3735671E0,5.0028396E0,2.3838596E0,0E0,3.0901268E0,2.7810774E0,3.9904113E0,2.824788E0,4.7510834E0,2.0950425E0,3.7750583E0,0E0,0E0,0E0,0E0,0E0,0E0,0E0,0E0,0E0,0E0,0E0,0E0,0E0,0E0,0E0,0E0,0E0,0E0,0E0,0E0],"parents":[2147483647,0,0,1,1,2,2,3,3,4,4,5,5,6,6,9,9,10,10,11,11,12,12,13,13,14,14,16,16,17,17,18,18,20,20,21,21,22,22,23,23,24,24,25,25,26,26],"right_children":[2,4,6,8,10,12,14,-1,-1,16,18,20,22,24,26,-1,28,30,32,-1,34,36,38,40,42,44,46,-1,-1,-1,-1,-1,-1,-1,-1,-1,-1,-1,-1,-1,-1,-1,-1,-1,-1,-1,-1],"split_conditions":[-1.58E0,-6.349E1,3E0,1.0221E2,7.6E0,5E-1,5.71E1,9.915225E-2,-1.1173645E-2,9.959E1,8.2E0,7.427796E-1,6.8981E2,6.557E1,2.1905E2,-5.1718127E-2,4.556E1,1.2029E2,5.8861E2,6.226575E-2,-6E-1,6E-1,1.17942E3,1.1231E2,9.2E0,7.461376E-1,9.1E0,8.80064E-2,-1.1173645E-2,-4.555401E-2,4.336476E-2,1.9467417E-2,-3.6706727E-2,1.5583389E-3,-6.009329E-2,9.057223E-2,-1.401475E-2,-2.963844E-2,1.7657505E-2,7.355645E-2,1.4798621E-2,-3.944158E-2,8.2531646E-2,2.3150206E-2,-6.454468E-2,-5.7551634E-2,7.497491E-2],"split_indices":[20,22,23,0,16,26,3,0,0,1,5,30,17,27,27,0,22,12,7,0,26,23,17,2,5,30,6,0,0,0,0,0,0,0,0,0,0,0,0,0,0,0,0,0,0,0,0],"split_type":[0,0,0,0,0,0,0,0,0,0,0,0,0,0,0,0,0,0,0,0,0,0,0,0,0,0,0,0,0,0,0,0,0,0,0,0,0,0,0,0,0,0,0,0,0,0,0],"sum_hessian":[4.3455112E2,2.0676616E2,2.2778494E2,6.8433247E0,1.9992284E2,1.2953436E2,9.825059E1,5.376898E0,1.4664267E0,9.287369E0,1.9063547E2,3.4705433E1,9.4828926E1,7.6743E1,2.1507591E1,1.4664267E0,7.8209424E0,2.3462828E1,1.6717264E2,2.9328535E0,3.177258E1,1.3686649E1,8.114228E1,4.008233E1,3.6660667E1,1.0753796E1,1.0753796E1,6.3545156E0,1.4664267E0,1.0753796E1,1.2709031E1,7.3321333E0,1.5984052E2,1.4664267E1,1.710831E1,1.0753796E1,2.9328535E0,2.4929255E1,5.6213024E1,1.0753796E1,2.9328533E1,2.9328535E0,3.3727814E1,3.4216623E0,7.3321333E0,1.9552356E0,8.79856E0],"tree_param":{"num_deleted":"0","num_feature":"35","num_nodes":"47","size_leaf_vector":"1"}},{"base_weights":[-2.0887582E-7,3.7513903E-1,-1.3332741E-1,7.783437E-1,1.3777278E-1,-9.496769E-3,-2.9556188E-1,3.181068E-1,1.0777102E0,3.0133265E-1,-4.1448417E-1,-7.065729E-2,5.341091E-1,-5.025651E-1,-1.7929138E-1,-6.734779E-2,1.1123126E-1,1.2136459E0,3.650897E-2,4.543349E-1,-1.16033904E-1,-5.234723E-1,2.774871E-2,7.271477E-2,-2.8643653E-1,4.5627996E-2,1.11986555E-1,-1.5639253E-1,-5.6802595E-1,6.574207E-1,-2.3039839E-1,6.246808E-2,-6.2263805E-2,1.2960646E-1,2.8527125E-3,-4.0872667E-2,4.657809E-2,2.5892003E-2,1.1463141E-1,-4.4172432E-2,4.498252E-2,-4.5241783E-3,-6.5672435E-2,1.35356635E-2,-6.286198E-2,-5.576734E-2,-3.568502E-3,-3.371687E-2,7.041956E-2,3.4009695E-2,-5.768922E-2,-2.0982789E-2,-6.647129E-2,2.8527125E-3,8.75904E-2,-3.2649796E-2,1.0423207E-2],"categories":[],"categories_nodes":[],"categories_segments":[],"categories_sizes":[],"default_left":[0,0,0,0,0,0,0,0,0,0,0,0,0,0,0,0,0,0,0,0,0,0,0,0,0,0,0,0,0,0,0,0,0,0,0,0,0,0,0,0,0,0,0,0,0,0,0,0,0,0,0,0,0,0,0,0,0],"id":2,"left_children":[1,3,5,7,9,11,13,15,17,19,21,23,25,27,29,31,-1,33,35,37,39,41,-1,43,45,47,-1,49,51,53,55,-1,-1,-1,-1,-1,-1,-1,-1,-1,-1,-1,-1,-1,-1,-1,-1,-1,-1,-1,-1,-1,-1,-1,-1,-1,-1],"loss_changes":[1.9175304E1,9.514025E0,5.679602E0,4.759981E0,5.9502773E0,5.4053745E0,2.8560333E0,4.977593E0,3.0724697E0,3.2670145E0,1.2883482E0,4.537655E0,4.654044E0,8.962517E-1,3.569684E0,4.894599E0,0E0,1.8625298E0,8.7346613E-1,4.7113223E0,2.8339338E0,8.268199E-1,0E0,3.973857E0,3.9579153E0,2.7606788E0,0E0,1.9275608E0,1.1134815E0,6.429281E-1,2.480442E0,0E0,0E0,0E0,0E0,0E0,0E0,0E0,0E0,0E0,0E0,0E0,0E0,0E0,0E0,0E0,0E0,0E0,0E0,0E0,0E0,0E0,0E0,0E0,0E0,0E0,0E0],"parents":[2147483647,0,0,1,1,2,2,3,3,4,4,5,5,6,6,7,7,8,8,9,9,10,10,11,11,12,12,13,13,14,14,15,15,17,17,18,18,19,19,20,20,21,21,23,23,24,24,25,25,27,27,28,28,29,29,30,30],"right_children":[2,4,6,8,10,12,14,16,18,20,22,24,26,28,30,32,-1,34,36,38,40,42,-1,44,46,48,-1,50,52,54,56,-1,-1,-1,-1,-1,-1,-1,-1,-1,-1,-1,-1,-1,-1,-1,-1,-1,-1,-1,-1,-1,-1,-1,-1,-1,-1],"split_conditions":[-1.464E1,-1.0562E2,1.3E0,-2.9475E2,1.79E0,5.6E1,4.73E1,-5.34E0,2.403E1,-1.2E0,3.635E1,9.8828804E-1,1.0336736E0,1.8E0,1.906E1,-8.47E0,1.1123126E-1,1.018E1,9.665E1,4.1597E2,5.26E1,6.1E0,2.774871E-2,3.5E0,-1.628E1,4.7E-1,1.11986555E-1,4.89E1,3.85E0,1.6E1,1.2616E2,6.246808E-2,-6.2263805E-2,1.2960646E-1,2.8527125E-3,-4.0872667E-2,4.657809E-2,2.5892003E-2,1.1463141E-1,-4.4172432E-2,4.498252E-2,-4.5241783E-3,-6.5672435E-2,1.35356635E-2,-6.286198E-2,-5.576734E-2,-3.568502E-3,-3.371687E-2,7.041956E-2,3.4009695E-2,-5.768922E-2,-2.0982789E-2,-6.647129E-2,2.8527125E-3,8.75904E-2,-3.2649796E-2,1.0423207E-2],"split_indices":[20,27,26,27,29,13,13,34,21,26,22,31,30,26,0,29,0,24,0,1,13,6,0,25,21,20,0,3,14,0,27,0,0,0,0,0,0,0,0,0,0,0,0,0,0,0,0,0,0,0,0,0,0,0,0,0,0],"split_type":[0,0,0,0,0,0,0,0,0,0,0,0,0,0,0,0,0,0,0,0,0,0,0,0,0,0,0,0,0,0,0,0,0,0,0,0,0,0,0,0,0,0,0,0,0,0,0,0,0,0,0,0,0,0,0,0,0],"sum_hessian":[3.8138138E2,9.95281E1,2.818533E2,3.6036037E1,6.3492065E1,1.6044617E2,1.2140713E2,1.5015016E1,2.102102E1,4.933505E1,1.4157015E1,1.4500215E2,1.54440155E1,4.2471043E1,7.893608E1,1.0725011E1,4.2900043E0,1.844702E1,2.5740027E0,3.6036037E1,1.3299013E1,1.2441012E1,1.7160017E0,8.751609E1,5.7486057E1,9.009009E0,6.4350066E0,7.2930074E0,3.5178036E1,3.8610039E0,7.507507E1,4.7190046E0,6.0060062E0,1.7160017E1,1.2870014E0,1.2870014E0,1.2870014E0,2.917203E1,6.864007E0,8.5800085E0,4.7190046E0,3.0030031E0,9.438009E0,8.1081085E1,6.4350066E0,2.7027027E1,3.045903E1,6.0060062E0,3.0030031E0,3.4320035E0,3.8610039E0,8.151009E0,2.7027027E1,1.2870014E0,2.5740027E0,5.834406E1,1.6731016E1],"tree_param":{"num_deleted":"0","num_feature":"35","num_nodes":"57","size_leaf_vector":"1"}},{"base_weights":[1.0396501E-5,-1.7037547E-1,9.276575E-2,-1.0328136E-2,-4.0998808E-1,5.107765E-1,5.2244417E-2,-2.55392E-1,2.0345283E-1,5.501042E-2,-4.6222723E-1,-2.0873765E-2,7.526357E-1,1.2001385E-1,3.504101E-2,6.9378036E-1,-3.4608617E-1,4.420075E-1,-3.185512E-1,-2.6099976E-2,-5.474439E-1,-3.8806042E-1,9.671584E-2,-3.6522258E-2,8.866657E-1,7.677195E-2,-3.7808666E-1,9.859838E-2,8.303358E-3,-5.868423E-2,5.857116E-3,6.739675E-2,-8.05416E-3,3.5092976E-2,-4.4032853E-2,-4.2790595E-2,9.033395E-2,-6.1900716E-2,1.4962132E-2,1.0621066E-2,-5.2877087E-2,3.445434E-2,1.1477697E-1,-1.7207826E-2,1.5022445E-2,-6.2269974E-2,9.538385E-3],"categories":[],"categories_nodes":[],"categories_segments":[],"categories_sizes":[],"default_left":[0,0,0,0,0,0,0,0,0,0,0,0,0,0,0,0,0,0,0,0,0,0,0,0,0,0,0,0,0,0,0,0,0,0,0,0,0,0,0,0,0,0,0,0,0,0,0],"id":3,"left_children":[1,3,5,7,9,11,13,15,17,-1,19,21,23,-1,25,27,29,31,33,35,37,39,-1,-1,41,43,45,-1,-1,-1,-1,-1,-1,-1,-1,-1,-1,-1,-1,-1,-1,-1,-1,-1,-1,-1,-1],"loss_changes":[5.477279E0,4.680669E0,3.7744036E0,3.9428632E0,2.7066078E0,2.551056E0,4.0198455E0,3.2569995E0,5.1495495E0,0E0,1.7293596E0,2.9649954E0,2.358348E0,0E0,3.54056E0,5.2301157E-1,3.2158737E0,3.4512243E0,1.2304589E0,3.6425982E0,2.0479412E0,4.677388E-1,0E0,0E0,1.3621845E0,3.422524E0,2.2432E0,0E0,0E0,0E0,0E0,0E0,0E0,0E0,0E0,0E0,0E0,0E0,0E0,0E0,0E0,0E0,0E0,0E0,0E0,0E0,0E0],"parents":[2147483647,0,0,1,1,2,2,3,3,4,4,5,5,6,6,7,7,8,8,10,10,11,11,12,12,14,14,15,15,16,16,17,17,18,18,19,19,20,20,21,21,24,24,25,25,26,26],"right_children":[2,4,6,8,10,12,14,16,18,-1,20,22,24,-1,26,28,30,32,34,36,38,40,-1,-1,42,44,46,-1,-1,-1,-1,-1,-1,-1,-1,-1,-1,-1,-1,-1,-1,-1,-1,-1,-1,-1,-1],"split_conditions":[-1.01E1,5.568E1,6.4E0,1.178E1,-3.616E1,-2.3E0,-9.871E1,-5.3E0,5.12E1,5.501042E-2,-4.88E0,2.608E1,-4.661E1,1.2001385E-1,1.474E1,2.5E0,1.1478791E0,1.072E1,-3.573E1,-4.667E1,1.0426E2,9.881E1,9.671584E-2,-3.6522258E-2,-3.443E1,7.6E0,-1.47E1,9.859838E-2,8.303358E-3,-5.868423E-2,5.857116E-3,6.739675E-2,-8.05416E-3,3.5092976E-2,-4.4032853E-2,-4.2790595E-2,9.033395E-2,-6.1900716E-2,1.4962132E-2,1.0621066E-2,-5.2877087E-2,3.445434E-2,1.1477697E-1,-1.7207826E-2,1.5022445E-2,-6.2269974E-2,9.538385E-3],"split_indices":[22,27,6,28,20,25,33,26,13,0,34,22,34,0,4,23,31,4,22,28,32,12,0,0,33,16,34,0,0,0,0,0,0,0,0,0,0,0,0,0,0,0,0,0,0,0,0],"split_type":[0,0,0,0,0,0,0,0,0,0,0,0,0,0,0,0,0,0,0,0,0,0,0,0,0,0,0,0,0,0,0,0,0,0,0,0,0,0,0,0,0,0,0,0,0,0,0],"sum_hessian":[3.44571E2,1.2116379E2,2.2340724E2,7.3268074E1,4.7895718E1,1.8717344E1,2.046899E2,3.4045734E1,3.922234E1,1.9797533E0,4.5915966E1,6.1381884E0,1.2579155E1,2.0070672E0,2.0268283E2,2.3894064E0,3.1656326E1,2.7025152E1,1.21971855E1,7.718747E0,3.8197216E1,4.9178033E0,1.2203853E0,1.1620772E0,1.1417078E1,1.848272E2,1.7855635E1,1.2006037E0,1.1888027E0,1.956541E1,1.2090917E1,1.851608E1,8.509073E0,1.5875826E0,1.0609603E1,5.76576E0,1.952987E0,3.4742413E1,3.454804E0,1.1441056E0,3.7736976E0,4.4653563E0,6.951721E0,4.1815952E1,1.4301125E2,1.1565349E1,6.290286E0],"tree_param":{"num_deleted":"0","num_feature":"35","num_nodes":"47","size_leaf_vector":"1"}},{"base_weights":[1.1286749E-5,-2.0566706E-1,1.8508096E-1,7.203653E-1,-2.4139097E-1,2.996146E-2,3.858544E-1,-1.2280375E-2,9.319684E-2,4.533336E-1,-2.778646E-1,-2.77049E-1,1.08447105E-1,4.787935E-1,4.564556E-2,-4.9394112E-2,6.6249204E-1,3.0200887E-2,-3.2122523E-1,6.169748E-2,-4.126192E-1,-3.2100755E-1,1.739851E-1,5.6697637E-1,7.780429E-2,6.749469E-1,-2.1899134E-1,8.263702E-2,-1.0250935E-2,-4.2452652E-2,4.1085582E-2,-3.964891E-2,-1.4725933E-2,2.1705296E-2,-5.6544553E-2,6.822615E-2,-4.9080607E-2,-1.8413473E-2,2.9271746E-2,-5.202934E-2,6.0078073E-2,-4.620343E-2,4.6466645E-2,-1.2286308E-2,9.131973E-2,-4.2257212E-2,4.3479905E-2],"categories":[],"categories_nodes":[],"categories_segments":[],"categories_sizes":[],"default_left":[0,0,0,0,0,0,0,0,0,0,0,0,0,0,0,0,0,0,0,0,0,0,0,0,0,0,0,0,0,0,0,0,0,0,0,0,0,0,0,0,0,0,0,0,0,0,0],"id":4,"left_children":[1,3,5,7,9,11,13,-1,-1,15,17,19,21,23,25,-1,27,29,31,-1,33,35,37,39,41,43,45,-1,-1,-1,-1,-1,-1,-1,-1,-1,-1,-1,-1,-1,-1,-1,-1,-1,-1,-1,-1],"loss_changes":[1.6598335E1,7.0061483E0,7.1367755E0,1.527935E0,5.1838007E0,3.1762278E0,3.1386623E0,0E0,0E0,2.3752577E0,2.5512972E0,3.5106604E0,3.0028176E0,2.7282925E0,3.9036777E0,0E0,1.1997643E0,4.39625E0,2.1266117E0,0E0,2.4252E0,2.7563586E0,3.944085E0,2.6689606E0,3.4085217E0,1.4278088E0,2.397365E0,0E0,0E0,0E0,0E0,0E0,0E0,0E0,0E0,0E0,0E0,0E0,0E0,0E0,0E0,0E0,0E0,0E0,0E0,0E0,0E0],"parents":[2147483647,0,0,1,1,2,2,3,3,4,4,5,5,6,6,9,9,10,10,11,11,12,12,13,13,14,14,16,16,17,17,18,18,20,20,21,21,22,22,23,23,24,24,25,25,26,26],"right_children":[2,4,6,8,10,12,14,-1,-1,16,18,20,22,24,26,-1,28,30,32,-1,34,36,38,40,42,44,46,-1,-1,-1,-1,-1,-1,-1,-1,-1,-1,-1,-1,-1,-1,-1,-1,-1,-1,-1,-1],"split_conditions":[-1.58E0,-6.349E1,3E0,2.8E0,7.6E0,-1.5268E2,5.71E1,-1.2280375E-2,9.319684E-2,9.959E1,8.2E0,-1.5E0,-2.481E1,2.8E0,-3.28E0,-4.9394112E-2,4.556E1,1.2029E2,1.068821E0,6.169748E-2,-2.223E1,-1.249E1,0E0,-7.164E1,3.4E0,1.1E1,6.38E0,8.263702E-2,-1.0250935E-2,-4.2452652E-2,4.1085582E-2,-3.964891E-2,-1.4725933E-2,2.1705296E-2,-5.6544553E-2,6.822615E-2,-4.9080607E-2,-1.8413473E-2,2.9271746E-2,-5.202934E-2,6.0078073E-2,-4.620343E-2,4.6466645E-2,-1.2286308E-2,9.131973E-2,-4.2257212E-2,4.3479905E-2],"split_indices":[20,22,23,23,16,27,3,0,0,1,5,25,21,25,24,0,22,12,31,0,22,22,26,22,25,5,29,0,0,0,0,0,0,0,0,0,0,0,0,0,0,0,0,0,0,0,0],"split_type":[0,0,0,0,0,0,0,0,0,0,0,0,0,0,0,0,0,0,0,0,0,0,0,0,0,0,0,0,0,0,0,0,0,0,0,0,0,0,0,0,0,0,0,0,0,0,0],"sum_hessian":[4.3405438E2,2.0552812E2,2.2852628E2,6.9223638E0,1.9860576E2,1.2956912E2,9.8957146E1,1.4729182E0,5.4494457E0,9.336748E0,1.8926901E2,2.586473E1,1.0370439E2,7.740429E1,2.155285E1,1.4424329E0,7.8943152E0,2.339036E1,1.6587865E2,2.9381306E0,2.29266E1,1.3214556E1,9.048984E1,6.311133E1,1.4292964E1,5.9214044E0,1.5631447E1,6.435488E0,1.458827E0,1.0605664E1,1.2784697E1,1.14892815E2,5.0985836E1,4.395614E0,1.8530985E1,1.4759156E0,1.173864E1,2.2394087E1,6.809575E1,1.469081E0,6.1642246E1,5.8856487E0,8.407316E0,1.4730457E0,4.4483585E0,1.218948E1,3.4419677E0],"tree_param":{"num_deleted":"0","num_feature":"35","num_nodes":"47","size_leaf_vector":"1"}},{"base_weights":[-2.2260898E-5,3.4416315E-1,-1.2536573E-1,6.969992E-1,1.16114095E-1,4.759367E-3,-2.6122698E-1,2.9376173E-1,9.337197E-1,2.753645E-1,-4.5688254E-1,-1.0139393E-1,2.986359E-1,-6.6467166E-2,-2.050672E-1,-7.138397E-2,1.0227635E-1,1.0388728E0,2.7521947E-2,3.5775483E-1,-5.7233155E-2,-6.808395E-2,-6.4238206E-2,7.321281E-2,-4.685993E-1,6.0588664E-1,-1.7598026E-1,-6.450451E-2,-1.632926E-1,5.7527598E-2,-6.1133046E-2,1.1013874E-1,2.1190566E-3,-4.1024234E-2,4.5022883E-2,1.9353515E-2,9.4383694E-2,-5.39394E-2,6.470021E-2,3.3785272E-2,-1.1484012E-2,-5.188961E-2,4.717662E-2,8.0426164E-2,-2.2347592E-2,1.6360821E-2,-5.131969E-2,3.7663773E-2,-2.2298573E-2],"categories":[],"categories_nodes":[],"categories_segments":[],"categories_sizes":[],"default_left":[0,0,0,0,0,0,0,0,0,0,0,0,0,0,0,0,0,0,0,0,0,0,0,0,0,0,0,0,0,0,0,0,0,0,0,0,0,0,0,0,0,0,0,0,0,0,0,0,0],"id":5,"left_children":[1,3,5,7,9,11,13,15,17,19,21,23,25,-1,27,29,-1,31,33,35,-1,37,-1,39,41,43,45,-1,47,-1,-1,-1,-1,-1,-1,-1,-1,-1,-1,-1,-1,-1,-1,-1,-1,-1,-1,-1,-1],"loss_changes":[1.6523298E1,8.146105E0,4.9647574E0,3.5381985E0,5.902354E0,4.534621E0,2.9761314E0,4.394095E0,2.3257637E0,3.708095E0,9.7633195E-1,6.883213E0,5.7309813E0,0E0,2.137577E0,4.4544616E0,0E0,1.383379E0,8.501493E-1,4.2767005E0,0E0,2.2656574E0,0E0,3.6846967E0,1.8793626E0,4.068694E0,1.9083428E0,0E0,3.7191455E0,0E0,0E0,0E0,0E0,0E0,0E0,0E0,0E0,0E0,0E0,0E0,0E0,0E0,0E0,0E0,0E0,0E0,0E0,0E0,0E0],"parents":[2147483647,0,0,1,1,2,2,3,3,4,4,5,5,6,6,7,7,8,8,9,9,10,10,11,11,12,12,14,14,15,15,17,17,18,18,19,19,21,21,23,23,24,24,25,25,26,26,28,28],"right_children":[2,4,6,8,10,12,14,16,18,20,22,24,26,-1,28,30,-1,32,34,36,-1,38,-1,40,42,44,46,-1,48,-1,-1,-1,-1,-1,-1,-1,-1,-1,-1,-1,-1,-1,-1,-1,-1,-1,-1,-1,-1],"split_conditions":[-1.464E1,-9.602E1,9E-1,-2.9475E2,1.79E0,1.0581608E0,4.45E1,-5.34E0,2.403E1,-3E-1,2.4475E2,-1.051E1,1.6E0,-6.6467166E-2,-5.34E0,-8.47E0,1.0227635E-1,1.018E1,3.766E1,4.3492E2,-5.7233155E-2,1.05E0,-6.4238206E-2,-1.2E0,3.6442E2,1.07E1,3.332E1,-6.450451E-2,-2.954E1,5.7527598E-2,-6.1133046E-2,1.1013874E-1,2.1190566E-3,-4.1024234E-2,4.5022883E-2,1.9353515E-2,9.4383694E-2,-5.39394E-2,6.470021E-2,3.3785272E-2,-1.1484012E-2,-5.188961E-2,4.717662E-2,8.0426164E-2,-2.2347592E-2,1.6360821E-2,-5.131969E-2,3.7663773E-2,-2.2298573E-2],"split_indices":[20,27,26,27,29,30,13,34,21,26,11,33,23,0,24,29,0,24,21,1,0,22,0,26,8,6,9,0,22,0,0,0,0,0,0,0,0,0,0,0,0,0,0,0,0,0,0,0,0],"split_type":[0,0,0,0,0,0,0,0,0,0,0,0,0,0,0,0,0,0,0,0,0,0,0,0,0,0,0,0,0,0,0,0,0,0,0,0,0,0,0,0,0,0,0,0,0,0,0,0,0],"sum_hessian":[3.8100323E2,1.01244995E2,2.7975824E2,3.894036E1,6.2304634E1,1.4338858E2,1.3636966E2,1.5232975E1,2.3707386E1,4.9160973E1,1.314366E1,1.0581966E2,3.7568916E1,1.5339227E1,1.2103043E2,1.0750364E1,4.482611E0,2.111127E1,2.5961137E0,4.533289E1,3.828084E0,4.6869836E0,8.4566765E0,7.226036E1,3.3559296E1,2.2637543E1,1.49313755E1,9.242772E0,1.1178767E2,4.86201E0,5.888355E0,1.9812002E1,1.2992687E0,1.2898277E0,1.306286E0,3.6449883E1,8.883007E0,2.973112E0,1.7138712E0,2.9686735E1,4.2573624E1,3.2280903E1,1.2783934E0,1.8292444E1,4.3450985E0,7.6960363E0,7.235339E0,1.0600004E1,1.0118766E2],"tree_param":{"num_deleted":"0","num_feature":"35","num_nodes":"49","size_leaf_vector":"1"}},{"base_weights":[4.857363E-4,-1.6063917E-1,8.663437E-2,-6.962815E-3,-3.9572698E-1,4.753794E-1,4.832943E-2,-5.992961E-2,7.7285916E-2,-4.4831458E-1,5.3269155E-2,4.673568E-2,7.549366E-1,1.10487066E-1,3.1893563E-2,-2.629035E-1,2.9640433E-1,-4.850456E-1,3.4856375E-2,1.0101765E-1,-3.1956315E-1,1.18257396E-1,3.3103773E-1,7.1370944E-2,-3.675019E-1,8.849203E-2,-3.932002E-2,5.9048582E-2,-2.3302631E-2,-5.0582676E-3,-5.8102157E-2,3.419195E-2,-5.6535732E-2,-2.8694559E-2,8.560647E-2,1.9161856E-4,3.2311063E-2,-6.1001122E-2,8.259547E-3],"categories":[],"categories_nodes":[],"categories_segments":[],"categories_sizes":[],"default_left":[0,0,0,0,0,0,0,0,0,0,0,0,0,0,0,0,0,0,0,0,0,0,0,0,0,0,0,0,0,0,0,0,0,0,0,0,0,0,0],"id":6,"left_children":[1,3,5,7,9,11,13,-1,15,17,-1,19,21,-1,23,25,27,29,-1,-1,31,-1,33,35,37,-1,-1,-1,-1,-1,-1,-1,-1,-1,-1,-1,-1,-1,-1],"loss_changes":[4.8013115E0,4.350965E0,3.3332148E0,3.7337246E0,2.5637326E0,2.3736906E0,3.5468974E0,0E0,4.9660616E0,1.5040655E0,0E0,3.4995372E0,1.8022413E0,0E0,3.2451215E0,4.2694097E0,6.420763E0,1.8060665E0,0E0,0E0,1.3772156E0,0E0,2.6680858E0,3.2624488E0,2.0726051E0,0E0,0E0,0E0,0E0,0E0,0E0,0E0,0E0,0E0,0E0,0E0,0E0,0E0,0E0],"parents":[2147483647,0,0,1,1,2,2,3,3,4,4,5,5,6,6,8,8,9,9,11,11,12,12,14,14,15,15,16,16,17,17,20,20,22,22,23,23,24,24],"right_children":[2,4,6,8,10,12,14,-1,16,18,-1,20,22,-1,24,26,28,30,-1,-1,32,-1,34,36,38,-1,-1,-1,-1,-1,-1,-1,-1,-1,-1,-1,-1,-1,-1],"split_conditions":[-1.01E1,5.568E1,6.4E0,1.1234E2,1.3261E2,2.66E0,-9.871E1,-5.992961E-2,-2.1E-1,1.41E1,5.3269155E-2,-7.753E1,7.5779E2,1.10487066E-1,1.474E1,2.1E0,1.06E1,-4.88E0,3.4856375E-2,1.0101765E-1,5.01E0,1.18257396E-1,1.43757E3,1.0655788E0,-1.47E1,8.849203E-2,-3.932002E-2,5.9048582E-2,-2.3302631E-2,-5.0582676E-3,-5.8102157E-2,3.419195E-2,-5.6535732E-2,-2.8694559E-2,8.560647E-2,1.9161856E-4,3.2311063E-2,-6.1001122E-2,8.259547E-3],"split_indices":[22,27,6,11,10,14,33,0,28,5,0,27,7,0,4,4,14,34,0,0,9,0,7,31,34,0,0,0,0,0,0,0,0,0,0,0,0,0,0],"split_type":[0,0,0,0,0,0,0,0,0,0,0,0,0,0,0,0,0,0,0,0,0,0,0,0,0,0,0,0,0,0,0,0,0,0,0,0,0,0,0],"sum_hessian":[3.4389603E2,1.1951008E2,2.2438594E2,7.2891014E1,4.661907E1,1.9103184E1,2.0528275E2,8.31522E0,6.457579E1,4.4609417E1,2.0096512E0,8.001578E0,1.1101605E1,2.1301155E0,2.0315263E2,2.5220388E1,3.9355404E1,4.301788E1,1.5915346E0,1.7199545E0,6.2816243E0,4.635484E0,6.4661217E0,1.8562613E2,1.752651E1,1.9806495E0,2.3239738E1,2.5227198E1,1.4128208E1,8.059814E0,3.495807E1,1.5958318E0,4.6857924E0,3.1784225E0,3.2876992E0,1.4627625E2,3.934988E1,1.1158891E1,6.3676195E0],"tree_param":{"num_deleted":"0","num_feature":"35","num_nodes":"39","size_leaf_vector":"1"}},{"base_weights":[-1.13132985E-4,-2.3998882E-1,1.3673519E-1,7.394676E-1,-2.799824E-1,-3.5794743E-3,3.388854E-1,2.4238056E-2,8.387296E-2,-3.253958E-1,7.817276E-2,-2.858423E-1,7.721184E-2,2.4730311E-1,7.2445446E-1,-6.084467E-1,-2.5216922E-1,8.671572E-2,-1.695408E-1,-7.632574E-2,-6.3908255E-1,4.2457196E-1,-1.5430946E-2,1.2622854E-1,5.851802E-1,8.306147E-1,-6.2324335E-3,-7.325463E-2,-1.2602473E-2,-1.7798042E-2,-6.63082E-2,-7.19372E-2,2.7566394E-2,-5.162998E-2,1.5980521E-2,-7.744686E-2,1.1304708E-2,5.6613266E-2,-1.2227148E-2,-1.3327892E-2,2.7390037E-2,2.2944888E-2,-3.818739E-2,-6.6861026E-3,7.5354725E-2,9.9845335E-2,4.366689E-2],"categories":[],"categories_nodes":[],"categories_segments":[],"categories_sizes":[],"default_left":[0,0,0,0,0,0,0,0,0,0,0,0,0,0,0,0,0,0,0,0,0,0,0,0,0,0,0,0,0,0,0,0,0,0,0,0,0,0,0,0,0,0,0,0,0,0,0],"id":7,"left_children":[1,3,5,7,9,11,13,-1,-1,15,17,19,21,23,25,27,29,-1,31,33,35,37,39,41,43,45,-1,-1,-1,-1,-1,-1,-1,-1,-1,-1,-1,-1,-1,-1,-1,-1,-1,-1,-1,-1,-1],"loss_changes":[1.4277753E1,6.396105E0,7.856739E0,1.1609626E-1,2.5062542E0,3.772624E0,3.8280182E0,0E0,0E0,2.656188E0,3.6590767E0,2.6756492E0,4.1467085E0,3.7395515E0,1.8277369E0,1.5332909E0,3.2171054E0,0E0,3.750778E0,2.6010687E0,1.4693084E0,2.168882E0,3.5325239E0,3.753734E0,2.719922E0,8.0736256E-1,0E0,0E0,0E0,0E0,0E0,0E0,0E0,0E0,0E0,0E0,0E0,0E0,0E0,0E0,0E0,0E0,0E0,0E0,0E0,0E0,0E0],"parents":[2147483647,0,0,1,1,2,2,3,3,4,4,5,5,6,6,9,9,10,10,11,11,12,12,13,13,14,14,15,15,16,16,18,18,19,19,20,20,21,21,22,22,23,23,24,24,25,25],"right_children":[2,4,6,8,10,12,14,-1,-1,16,18,20,22,24,26,28,30,-1,32,34,36,38,40,42,44,46,-1,-1,-1,-1,-1,-1,-1,-1,-1,-1,-1,-1,-1,-1,-1,-1,-1,-1,-1,-1,-1],"split_conditions":[-7.57E0,-6.349E1,3E0,5.33E1,-1E-1,-1.5268E2,1.059642E0,2.4238056E-2,8.387296E-2,-1.6133E2,8.9E0,1.1094853E0,7.1E0,2.6411E2,2.63766E3,1.0911711E0,5.44E1,8.671572E-2,8.8E0,1.9E1,5.34E0,1.13E1,1.756E1,5.7E1,9.1E0,1.04E1,-6.2324335E-3,-7.325463E-2,-1.2602473E-2,-1.7798042E-2,-6.63082E-2,-7.19372E-2,2.7566394E-2,-5.162998E-2,1.5980521E-2,-7.744686E-2,1.1304708E-2,5.6613266E-2,-1.2227148E-2,-1.3327892E-2,2.7390037E-2,2.2944888E-2,-3.818739E-2,-6.6861026E-3,7.5354725E-2,9.9845335E-2,4.366689E-2],"split_indices":[20,22,23,3,26,27,31,0,0,27,5,30,16,27,17,31,3,0,14,19,24,15,20,3,6,16,0,0,0,0,0,0,0,0,0,0,0,0,0,0,0,0,0,0,0,0,0],"split_type":[0,0,0,0,0,0,0,0,0,0,0,0,0,0,0,0,0,0,0,0,0,0,0,0,0,0,0,0,0,0,0,0,0,0,0,0,0,0,0,0,0,0,0,0,0,0,0],"sum_hessian":[4.329452E2,1.5699738E2,2.759478E2,5.4729633E0,1.5152441E2,1.6346634E2,1.1248147E2,1.4838617E0,3.9891016E0,1.3455461E2,1.696981E1,3.5811768E1,1.2765458E2,9.2218636E1,2.0262833E1,2.6153074E1,1.08401535E2,3.4573312E0,1.3512479E1,2.3242231E1,1.2569535E1,2.6123343E1,1.01531235E2,6.890196E1,2.3316673E1,1.7804724E1,2.4581103E0,2.0389538E1,5.7635355E0,9.303715E1,1.5364387E1,5.770296E0,7.7421827E0,7.7030067E0,1.5539225E1,1.06269455E1,1.9425895E0,2.0723421E1,5.3999214E0,7.252878E1,2.9002455E1,5.7723858E1,1.1178105E1,4.908855E0,1.8407818E1,1.1409338E1,6.3953853E0],"tree_param":{"num_deleted":"0","num_feature":"35","num_nodes":"47","size_leaf_vector":"1"}},{"base_weights":[-3.1068496E-4,3.1649387E-1,-1.18083954E-1,6.5089226E-1,1.1185387E-1,-1.8858486E-1,1.1058977E-1,2.6996875E-1,8.870537E-1,2.5706047E-1,-3.9951852E-1,-5.748315E-2,-3.574864E-1,-4.6442177E-2,6.5571386E-1,-7.603147E-2,9.4262265E-2,9.934257E-1,2.028069E-2,-3.4696877E-1,3.4483153E-1,-6.318998E-2,-4.375458E-2,-1.0234931E-1,7.339148E-1,6.426523E-2,-3.8336393E-1,1.6551994E-1,-2.688243E-1,-2.3615752E-1,8.590666E-1,5.307228E-2,-6.0107704E-2,1.05825186E-1,1.0870048E-3,4.3132704E-2,-4.0787186E-2,-5.9946574E-2,4.1290376E-2,-1.0477153E-2,5.223446E-2,5.7670753E-2,-5.4847118E-2,-5.6256976E-2,-1.491415E-3,3.999852E-3,1.16109885E-1,-2.1119788E-2,-5.423368E-2,-7.6839547E-3,6.745549E-2,-4.083478E-2,3.5324574E-2,3.594904E-3,-4.042483E-2,1.0376295E-1,-3.9765395E-2],"categories":[],"categories_nodes":[],"categories_segments":[],"categories_sizes":[],"default_left":[0,0,0,0,0,0,0,0,0,0,0,0,0,0,0,0,0,0,0,0,0,0,0,0,0,0,0,0,0,0,0,0,0,0,0,0,0,0,0,0,0,0,0,0,0,0,0,0,0,0,0,0,0,0,0,0,0],"id":8,"left_children":[1,3,5,7,9,11,13,15,17,19,21,23,25,27,29,31,-1,33,35,37,39,-1,41,43,45,-1,47,49,51,53,55,-1,-1,-1,-1,-1,-1,-1,-1,-1,-1,-1,-1,-1,-1,-1,-1,-1,-1,-1,-1,-1,-1,-1,-1,-1,-1],"loss_changes":[1.4260526E1,7.015335E0,4.512748E0,3.2793503E0,4.9637628E0,4.7033963E0,5.7048693E0,3.8902655E0,2.1657772E0,2.855037E0,1.2016528E0,4.382086E0,2.654251E0,2.5143294E0,2.9035835E0,4.065322E0,0E0,1.3322144E0,8.116651E-1,1.5991232E0,3.6901526E0,0E0,2.4925792E0,4.646068E0,1.9189417E0,0E0,2.3847542E0,3.4378457E0,2.396645E0,1.768692E-1,3.182167E0,0E0,0E0,0E0,0E0,0E0,0E0,0E0,0E0,0E0,0E0,0E0,0E0,0E0,0E0,0E0,0E0,0E0,0E0,0E0,0E0,0E0,0E0,0E0,0E0,0E0,0E0],"parents":[2147483647,0,0,1,1,2,2,3,3,4,4,5,5,6,6,7,7,8,8,9,9,10,10,11,11,12,12,13,13,14,14,15,15,17,17,18,18,19,19,20,20,22,22,23,23,24,24,26,26,27,27,28,28,29,29,30,30],"right_children":[2,4,6,8,10,12,14,16,18,20,22,24,26,28,30,32,-1,34,36,38,40,-1,42,44,46,-1,48,50,52,54,56,-1,-1,-1,-1,-1,-1,-1,-1,-1,-1,-1,-1,-1,-1,-1,-1,-1,-1,-1,-1,-1,-1,-1,-1,-1,-1],"split_conditions":[-1.464E1,-1.0562E2,5.26E1,-2.9475E2,1.79E0,9.79E0,1.1675732E0,-5.34E0,2.403E1,8.9E0,-1.223E1,4.2908E2,-9.418E1,9.7E0,-2.1E-1,-8.47E0,9.4262265E-2,1.018E1,4.88E1,5.24E1,3.81E0,-6.318998E-2,1.0159241E0,-3.297E1,5E1,6.426523E-2,9.6833664E-1,-1.33E0,1.2E1,1.16E1,4.1526E2,5.307228E-2,-6.0107704E-2,1.05825186E-1,1.0870048E-3,4.3132704E-2,-4.0787186E-2,-5.9946574E-2,4.1290376E-2,-1.0477153E-2,5.223446E-2,5.7670753E-2,-5.4847118E-2,-5.6256976E-2,-1.491415E-3,3.999852E-3,1.16109885E-1,-2.1119788E-2,-5.423368E-2,-7.6839547E-3,6.745549E-2,-4.083478E-2,3.5324574E-2,3.594904E-3,-4.042483E-2,1.0376295E-1,-3.9765395E-2],"split_indices":[20,27,13,27,29,20,30,34,21,16,33,11,34,6,29,29,0,24,3,13,14,0,31,21,3,0,30,32,15,5,12,0,0,0,0,0,0,0,0,0,0,0,0,0,0,0,0,0,0,0,0,0,0,0,0,0,0],"split_type":[0,0,0,0,0,0,0,0,0,0,0,0,0,0,0,0,0,0,0,0,0,0,0,0,0,0,0,0,0,0,0,0,0,0,0,0,0,0,0,0,0,0,0,0,0,0,0,0,0,0,0,0,0,0,0,0,0],"sum_hessian":[3.8020428E2,1.0258043E2,2.7762384E2,3.8115665E1,6.446476E1,2.123354E2,6.528844E1,1.5407249E1,2.2708416E1,5.0595303E1,1.3869461E1,1.2029923E2,9.203617E1,5.1397385E1,1.3891056E1,1.0759657E1,4.6475925E0,2.009607E1,2.6123476E0,6.0445266E0,4.4550774E1,7.9200134E0,5.9494476E0,1.1466905E2,5.6301785E0,1.7201436E0,9.0316025E1,2.6446125E1,2.495126E1,2.5492315E0,1.1341825E1,4.9864225E0,5.7732334E0,1.8779982E1,1.3160882E0,1.329016E0,1.2833316E0,4.6953964E0,1.3491298E0,1.2726647E1,3.1824127E1,2.6047366E0,3.3447113E0,1.7439743E1,9.722931E1,2.5620413E0,3.0681374E0,4.4476704E1,4.5839325E1,1.8491217E1,7.954908E0,2.0660828E1,4.290431E0,1.2736198E0,1.2756118E0,1.0083441E1,1.2583838E0],"tree_param":{"num_deleted":"0","num_feature":"35","num_nodes":"57","size_leaf_vector":"1"}},{"base_weights":[1.0885494E-3,-1.5383334E-1,8.1035435E-2,1.5887768E-3,-3.9884883E-1,5.58473E-1,4.7557816E-2,-5.8695443E-2,8.358941E-2,-4.5296824E-1,4.9813002E-2,-3.9820682E-2,6.952695E-1,3.8127753E-1,-3.550724E-3,-2.6581377E-1,2.7827302E-1,-5.0869805E-1,1.530793E-1,-3.45394E-2,8.170924E-1,-1.06026985E-1,6.81748E-1,5.113539E-2,-2.9001057E-1,6.892606E-2,-3.687346E-2,7.460565E-2,3.6393784E-3,-7.918597E-3,-5.9491765E-2,1.0037213E-1,-4.6488807E-2,-7.681306E-3,9.671027E-2,-2.9616585E-2,5.4930683E-2,5.45863E-3,1.1721009E-1,2.0723348E-4,4.44597E-2,5.060489E-2,-4.5548655E-2],"categories":[],"categories_nodes":[],"categories_segments":[],"categories_sizes":[],"default_left":[0,0,0,0,0,0,0,0,0,0,0,0,0,0,0,0,0,0,0,0,0,0,0,0,0,0,0,0,0,0,0,0,0,0,0,0,0,0,0,0,0,0,0],"id":9,"left_children":[1,3,5,7,9,11,13,-1,15,17,-1,-1,19,21,23,25,27,29,31,-1,33,35,37,39,41,-1,-1,-1,-1,-1,-1,-1,-1,-1,-1,-1,-1,-1,-1,-1,-1,-1,-1],"loss_changes":[4.273599E0,4.4733467E0,3.6110911E0,3.5654504E0,2.4388103E0,2.2163086E0,3.647377E0,0E0,4.4837046E0,1.5477791E0,0E0,0E0,1.9721255E0,4.2305665E0,2.934372E0,2.5845494E0,4.7385345E0,1.4374046E0,2.7972565E0,0E0,1.7142706E0,1.6202433E0,5.3799543E0,3.0365152E0,4.185665E0,0E0,0E0,0E0,0E0,0E0,0E0,0E0,0E0,0E0,0E0,0E0,0E0,0E0,0E0,0E0,0E0,0E0,0E0],"parents":[2147483647,0,0,1,1,2,2,3,3,4,4,5,5,6,6,8,8,9,9,12,12,13,13,14,14,15,15,16,16,17,17,18,18,20,20,21,21,22,22,23,23,24,24],"right_children":[2,4,6,8,10,12,14,-1,16,18,-1,-1,20,22,24,26,28,30,32,-1,34,36,38,40,42,-1,-1,-1,-1,-1,-1,-1,-1,-1,-1,-1,-1,-1,-1,-1,-1,-1,-1],"split_conditions":[-1.021E1,5.568E1,6.521E1,1.1234E2,1.3261E2,4.83E0,-2.4821E2,-5.8695443E-2,-5.58E0,1.0426E2,4.9813002E-2,-3.9820682E-2,4.09E1,-8.92E0,1.1519719E0,1.71E0,4.9E0,-1.346E1,9.044E1,-3.45394E-2,-8.28E0,5.89E1,-5.003E1,2.6411E2,7.448455E-1,6.892606E-2,-3.687346E-2,7.460565E-2,3.6393784E-3,-7.918597E-3,-5.9491765E-2,1.0037213E-1,-4.6488807E-2,-7.681306E-3,9.671027E-2,-2.9616585E-2,5.4930683E-2,5.45863E-3,1.1721009E-1,2.0723348E-4,4.44597E-2,5.060489E-2,-4.5548655E-2],"split_indices":[22,27,8,11,10,9,27,0,20,32,0,0,13,21,30,4,4,34,10,0,22,13,33,27,31,0,0,0,0,0,0,0,0,0,0,0,0,0,0,0,0,0,0],"split_type":[0,0,0,0,0,0,0,0,0,0,0,0,0,0,0,0,0,0,0,0,0,0,0,0,0,0,0,0,0,0,0,0,0,0,0,0,0,0,0,0,0,0,0],"sum_hessian":[3.430414E2,1.1645313E2,2.2658827E2,7.1862E1,4.4591133E1,1.3819595E1,2.1276868E2,8.034935E0,6.382707E1,4.252065E1,2.0704844E0,1.4898016E0,1.2329794E1,2.7399569E1,1.8536911E2,2.2707687E1,4.111938E1,3.9086987E1,3.4336617E0,1.0997808E0,1.1230013E1,1.0697476E1,1.6702091E1,1.5634402E2,2.9025091E1,1.6547847E0,2.1052902E1,1.3304554E1,2.7814827E1,6.8552485E0,3.223174E1,1.182164E0,2.2514977E0,1.683866E0,9.546147E0,8.716528E0,1.9809488E0,7.8163257E0,8.885765E0,1.3990385E2,1.6440172E1,4.6408925E0,2.43842E1],"tree_param":{"num_deleted":"0","num_feature":"35","num_nodes":"43","size_leaf_vector":"1"}},{"base_weights":[-4.8100713E-4,-2.735099E-1,1.0387072E-1,7.52608E-2,-3.062766E-1,-2.0203747E-2,2.8682858E-1,-6.279981E-2,-3.8698974E-1,1.8430248E-2,-5.0097746E-1,2.0245768E-1,6.103278E-1,-2.9449823E-1,4.8965853E-1,-4.118633E-1,4.7622856E-2,-2.4040984E-2,5.844228E-1,3.0627543E-2,-6.1912864E-1,7.690845E-2,4.9790657E-1,7.447307E-1,-1.0975518E-1,-4.1224934E-2,3.471088E-2,-5.113576E-2,7.383671E-2,1.7033184E-2,-4.485027E-2,-2.0204809E-2,1.33131435E-2,-5.0155412E-2,7.7697836E-2,2.7178407E-2,-7.623454E-2,5.5442996E-2,-3.0113577E-3,1.7231138E-2,6.851906E-2,-1.316867E-2,8.147042E-2,2.0069277E-2,-5.0373882E-2],"categories":[],"categories_nodes":[],"categories_segments":[],"categories_sizes":[],"default_left":[0,0,0,0,0,0,0,0,0,0,0,0,0,0,0,0,0,0,0,0,0,0,0,0,0,0,0,0,0,0,0,0,0,0,0,0,0,0,0,0,0,0,0,0,0],"id":10,"left_children":[1,3,5,-1,7,9,11,13,15,17,19,21,23,25,27,29,-1,31,33,-1,35,37,39,41,43,-1,-1,-1,-1,-1,-1,-1,-1,-1,-1,-1,-1,-1,-1,-1,-1,-1,-1,-1,-1],"loss_changes":[1.2348971E1,4.260186E0,7.124314E0,0E0,2.2720623E0,3.4974158E0,3.3369904E0,4.020976E0,2.0763035E0,4.2157974E0,1.5252955E0,3.747375E0,2.571992E0,1.8023213E0,2.6989899E0,1.9034204E0,0E0,4.60275E0,2.949256E0,0E0,1.8081098E0,3.7374175E0,1.7267118E0,1.4449263E0,7.027182E-1,0E0,0E0,0E0,0E0,0E0,0E0,0E0,0E0,0E0,0E0,0E0,0E0,0E0,0E0,0E0,0E0,0E0,0E0,0E0,0E0],"parents":[2147483647,0,0,1,1,2,2,4,4,5,5,6,6,7,7,8,8,9,9,10,10,11,11,12,12,13,13,14,14,15,15,17,17,18,18,20,20,21,21,22,22,23,23,24,24],"right_children":[2,4,6,-1,8,10,12,14,16,18,20,22,24,26,28,30,-1,32,34,-1,36,38,40,42,44,-1,-1,-1,-1,-1,-1,-1,-1,-1,-1,-1,-1,-1,-1,-1,-1,-1,-1,-1,-1],"split_conditions":[-1.356E1,-6.349E1,2.8E0,7.52608E-2,8.8E0,1.1352E2,1.0662388E0,-1.6E0,8.275E1,9.541E1,1.067E1,2.493E1,2.8741E3,1.27E0,3.487E1,1.0301E2,4.7622856E-2,7E-1,8.507808E-1,3.0627543E-2,8.7E0,4.26E1,-2.51E1,-1.2E1,1.0541803E0,-4.1224934E-2,3.471088E-2,-5.113576E-2,7.383671E-2,1.7033184E-2,-4.485027E-2,-2.0204809E-2,1.33131435E-2,-5.0155412E-2,7.7697836E-2,2.7178407E-2,-7.623454E-2,5.5442996E-2,-3.0113577E-3,1.7231138E-2,6.851906E-2,-1.316867E-2,8.147042E-2,2.0069277E-2,-5.0373882E-2],"split_indices":[20,22,23,0,5,10,31,26,32,10,14,20,7,29,10,1,0,26,30,0,16,13,22,29,30,0,0,0,0,0,0,0,0,0,0,0,0,0,0,0,0,0,0,0,0],"split_type":[0,0,0,0,0,0,0,0,0,0,0,0,0,0,0,0,0,0,0,0,0,0,0,0,0,0,0,0,0,0,0,0,0,0,0,0,0,0,0,0,0,0,0,0,0],"sum_hessian":[4.3143637E2,1.1885075E2,3.1258563E2,2.9979706E0,1.1585278E2,1.8679712E2,1.2578851E2,2.9286402E1,8.656638E1,1.7379312E2,1.3003995E1,1.0105777E2,2.4730745E1,2.0961979E1,8.324424E0,8.465008E1,1.9163088E0,1.6255292E2,1.1240201E1,1.4569997E0,1.1546995E1,7.180498E1,2.9252787E1,2.0811977E1,3.918768E0,1.8013517E1,2.9484613E0,1.4464834E0,6.87794E0,4.7958474E0,7.9854225E1,7.609045E1,8.646247E1,1.4511671E0,9.789034E0,1.4748207E0,1.0072174E1,1.23811245E1,5.9423855E1,1.1383139E1,1.7869648E1,1.4735706E0,1.9338408E1,2.4661322E0,1.4526358E0],"tree_param":{"num_deleted":"0","num_feature":"35","num_nodes":"45","size_leaf_vector":"1"}},{"base_weights":[-4.3828794E-4,2.8981403E-1,-1.10419706E-1,5.9670997E-1,9.9794984E-2,-8.249154E-3,-2.503493E-1,6.9494903E-1,-1.03513785E-1,2.3640871E-1,-3.9159936E-1,-6.857614E-2,4.0963972E-1,3.9549816E-1,-2.830339E-1,7.6679844E-1,-4.5489732E-2,5.160389E-2,-5.3301185E-2,-3.371328E-1,3.177042E-1,-6.2019873E-2,-4.8491508E-2,1.2844707E-1,-2.2667632E-1,7.651212E-1,-2.5586376E-1,-4.293349E-2,7.9353917E-1,-4.8338008E-1,-1.6336887E-1,8.347585E-2,-1.3705696E-3,-5.8681566E-2,3.9467998E-2,-1.0424908E-2,4.8115797E-2,5.375988E-2,-5.396344E-2,5.176413E-3,8.25787E-2,-3.293998E-2,3.2160864E-3,9.084857E-2,-3.8228985E-2,4.184357E-2,-5.9334386E-2,4.5106984E-3,1.07400954E-1,-6.664361E-2,-2.06325E-2,4.521404E-2,-2.5902197E-2],"categories":[],"categories_nodes":[],"categories_segments":[],"categories_sizes":[],"default_left":[0,0,0,0,0,0,0,0,0,0,0,0,0,0,0,0,0,0,0,0,0,0,0,0,0,0,0,0,0,0,0,0,0,0,0,0,0,0,0,0,0,0,0,0,0,0,0,0,0,0,0,0,0],"id":11,"left_children":[1,3,5,7,9,11,13,15,17,19,21,23,25,27,29,31,-1,-1,-1,33,35,-1,37,39,41,43,45,-1,47,49,51,-1,-1,-1,-1,-1,-1,-1,-1,-1,-1,-1,-1,-1,-1,-1,-1,-1,-1,-1,-1,-1,-1],"loss_changes":[1.2159064E1,6.044258E0,3.9470334E0,2.8113918E0,4.5127544E0,4.07901E0,2.5719647E0,3.2448044E0,1.8104575E0,2.5383947E0,1.1228917E0,4.4296856E0,5.0252147E0,2.3206768E0,2.594347E0,1.7811985E0,0E0,0E0,0E0,1.5030961E0,3.235561E0,0E0,2.2943149E0,3.354609E0,2.1041918E0,2.5774093E0,2.0362527E0,0E0,8.7912154E-1,1.951334E0,4.3161383E0,0E0,0E0,0E0,0E0,0E0,0E0,0E0,0E0,0E0,0E0,0E0,0E0,0E0,0E0,0E0,0E0,0E0,0E0,0E0,0E0,0E0,0E0],"parents":[2147483647,0,0,1,1,2,2,3,3,4,4,5,5,6,6,7,7,8,8,9,9,10,10,11,11,12,12,13,13,14,14,15,15,19,19,20,20,22,22,23,23,24,24,25,25,26,26,28,28,29,29,30,30],"right_children":[2,4,6,8,10,12,14,16,18,20,22,24,26,28,30,32,-1,-1,-1,34,36,-1,38,40,42,44,46,-1,48,50,52,-1,-1,-1,-1,-1,-1,-1,-1,-1,-1,-1,-1,-1,-1,-1,-1,-1,-1,-1,-1,-1,-1],"split_conditions":[-1.464E1,-1.0562E2,1.3E0,4.428E1,1.79E0,1.1542064E0,1.881E1,6.22E1,1.163E1,8.9E0,-1.223E1,-2.782E1,7.02E0,8.1E0,9.5E0,1E0,-4.5489732E-2,5.160389E-2,-5.3301185E-2,5.24E1,3.81E0,-6.2019873E-2,1.0159241E0,1.155E1,3.93E0,1.9085E2,8.5512906E-1,-4.293349E-2,1.0211E2,3.8E0,9.6E0,8.347585E-2,-1.3705696E-3,-5.8681566E-2,3.9467998E-2,-1.0424908E-2,4.8115797E-2,5.375988E-2,-5.396344E-2,5.176413E-3,8.25787E-2,-3.293998E-2,3.2160864E-3,9.084857E-2,-3.8228985E-2,4.184357E-2,-5.9334386E-2,4.5106984E-3,1.07400954E-1,-6.664361E-2,-2.06325E-2,4.521404E-2,-2.5902197E-2],"split_indices":[20,27,26,9,29,30,0,13,4,16,33,33,20,15,15,25,0,0,0,13,14,0,31,22,21,27,31,0,1,32,6,0,0,0,0,0,0,0,0,0,0,0,0,0,0,0,0,0,0,0,0,0,0],"split_type":[0,0,0,0,0,0,0,0,0,0,0,0,0,0,0,0,0,0,0,0,0,0,0,0,0,0,0,0,0,0,0,0,0,0,0,0,0,0,0,0,0,0,0,0,0,0,0,0,0,0,0,0,0],"sum_hessian":[3.7889246E2,1.0366766E2,2.752248E2,3.8823826E1,6.484384E1,1.596871E2,1.1553768E2,3.405373E1,4.770093E0,5.114406E1,1.369978E1,1.4027301E2,1.9414097E1,5.0306983E0,1.1050698E2,3.236453E1,1.6892028E0,1.8704575E0,2.8996356E0,5.9586487E0,4.518541E1,7.7371974E0,5.9625835E0,6.2532745E1,7.7740265E1,1.2557023E1,6.8570743E0,1.6118834E0,3.418815E0,4.0186428E1,7.032056E1,2.9708258E1,2.6562712E0,4.590558E0,1.3680909E0,1.2717527E1,3.2467884E1,2.6753955E0,3.2871878E0,5.730539E1,5.227354E0,5.5458214E1,2.228205E1,1.1347435E1,1.2095879E0,2.207171E0,4.6499033E0,1.2483726E0,2.1704423E0,2.335191E1,1.6834518E1,8.957016E0,6.1363537E1],"tree_param":{"num_deleted":"0","num_feature":"35","num_nodes":"53","size_leaf_vector":"1"}},{"base_weights":[1.6089488E-3,-1.4409535E-1,7.7133976E-2,-3.8987214E-3,-3.6898154E-1,4.317575E-1,4.1584834E-2,-5.7588156E-2,7.2574444E-2,7.3423564E-2,-4.8438638E-1,3.778085E-2,6.814163E-1,1.0193423E-1,2.5927281E-2,-2.681792E-1,2.6386893E-1,4.8271853E-1,-5.1811527E-2,-5.5675244E-1,1.6154584E-1,9.35601E-2,-3.157264E-1,1.05379276E-1,3.0130428E-1,7.8826435E-2,-2.442253E-1,6.474211E-2,-3.672105E-2,6.9561265E-2,3.497063E-3,-2.6336525E-2,1.20942764E-1,-5.83888E-2,1.0983096E-2,9.483059E-2,-4.4881392E-2,2.9807007E-2,-5.5429753E-2,-2.821624E-2,7.7971734E-2,2.527712E-3,7.162874E-2,-3.651862E-2,2.8007885E-2],"categories":[],"categories_nodes":[],"categories_segments":[],"categories_sizes":[],"default_left":[0,0,0,0,0,0,0,0,0,0,0,0,0,0,0,0,0,0,0,0,0,0,0,0,0,0,0,0,0,0,0,0,0,0,0,0,0,0,0,0,0,0,0,0,0],"id":12,"left_children":[1,3,5,7,9,11,13,-1,15,17,19,21,23,-1,25,27,29,31,-1,33,35,-1,37,-1,39,41,43,-1,-1,-1,-1,-1,-1,-1,-1,-1,-1,-1,-1,-1,-1,-1,-1,-1,-1],"loss_changes":[3.786719E0,3.7024899E0,2.838975E0,3.2513816E0,2.3383312E0,1.9946907E0,3.1438365E0,0E0,4.347585E0,2.7195923E0,1.7681904E0,3.1602545E0,1.4538999E0,0E0,2.9466357E0,2.4216967E0,4.1782427E0,3.8677645E0,0E0,6.5219307E-1,2.5347927E0,0E0,1.2230736E0,0E0,2.3396459E0,5.8551497E0,2.2450466E0,0E0,0E0,0E0,0E0,0E0,0E0,0E0,0E0,0E0,0E0,0E0,0E0,0E0,0E0,0E0,0E0,0E0,0E0],"parents":[2147483647,0,0,1,1,2,2,3,3,4,4,5,5,6,6,8,8,9,9,10,10,11,11,12,12,14,14,15,15,16,16,17,17,19,19,20,20,22,22,24,24,25,25,26,26],"right_children":[2,4,6,8,10,12,14,-1,16,18,20,22,24,-1,26,28,30,32,-1,34,36,-1,38,-1,40,42,44,-1,-1,-1,-1,-1,-1,-1,-1,-1,-1,-1,-1,-1,-1,-1,-1,-1,-1],"split_conditions":[-1.01E1,5.568E1,6.4E0,1.1234E2,-4.88E0,2.66E0,-9.871E1,-5.7588156E-2,-5.58E0,3.413E2,1.0426E2,-7.753E1,7.5779E2,1.0193423E-1,1.981E1,1.71E0,4.9E0,-3.83E0,-5.1811527E-2,1.1896E2,9.044E1,9.35601E-2,5.01E0,1.05379276E-1,1.43757E3,1.447E1,9.918402E-1,6.474211E-2,-3.672105E-2,6.9561265E-2,3.497063E-3,-2.6336525E-2,1.20942764E-1,-5.83888E-2,1.0983096E-2,9.483059E-2,-4.4881392E-2,2.9807007E-2,-5.5429753E-2,-2.821624E-2,7.7971734E-2,2.527712E-3,7.162874E-2,-3.651862E-2,2.8007885E-2],"split_indices":[22,27,6,11,34,14,33,0,20,27,32,27,7,0,20,4,4,29,0,21,10,0,9,0,7,20,31,0,0,0,0,0,0,0,0,0,0,0,0,0,0,0,0,0,0],"split_type":[0,0,0,0,0,0,0,0,0,0,0,0,0,0,0,0,0,0,0,0,0,0,0,0,0,0,0,0,0,0,0,0,0,0,0,0,0,0,0,0,0,0,0,0,0],"sum_hessian":[3.42102E2,1.1647955E2,2.2562244E2,7.237653E1,4.410302E1,1.9541285E1,2.0608115E2,7.7652984E0,6.461124E1,9.1996975E0,3.490332E1,8.026426E0,1.1514858E1,2.2377775E0,2.0384337E2,2.3086046E1,4.152519E1,5.5461745E0,3.6535232E0,3.1511087E1,3.3922336E0,1.802331E0,6.224096E0,4.9213448E0,6.593514E0,1.7105663E2,3.2786747E1,1.7127907E0,2.1373255E1,1.3681131E1,2.7844055E1,3.0512092E0,2.4949653E0,3.0397703E1,1.1133838E0,1.2400775E0,2.152156E0,1.6722721E0,4.5518236E0,3.1554174E0,3.4380968E0,1.5875981E2,1.2296817E1,2.6887161E1,5.8995857E0],"tree_param":{"num_deleted":"0","num_feature":"35","num_nodes":"45","size_leaf_vector":"1"}},{"base_weights":[-3.964757E-4,-2.102919E-1,1.1705295E-1,6.819869E-1,-2.4750866E-1,-7.0686955E-3,2.9236412E-1,7.802956E-2,2.0887127E-2,-1.4051141E-1,-3.9599612E-1,-2.701122E-1,6.806801E-2,3.804907E-1,-3.9409958E-2,-2.477657E-1,2.3444732E-1,2.0407628E-1,-4.3790996E-1,-7.1986265E-2,-6.093631E-1,3.8939643E-1,-1.9046001E-2,4.534911E-1,6.115005E-3,5.7125324E-1,-2.6104158E-1,-3.5176005E-2,2.7221099E-2,4.3628644E-2,-6.1557304E-2,-4.8728712E-2,7.8929074E-2,3.3725776E-2,-4.633317E-2,-2.9345501E-2,3.4381762E-2,-7.3930465E-2,9.425278E-3,4.984448E-2,-2.7685849E-2,-1.3168677E-2,2.57193E-2,3.5065424E-2,7.7825874E-2,-2.8908178E-2,5.4126214E-2,-1.540565E-2,7.956817E-2,-5.399868E-3,-7.169492E-2],"categories":[],"categories_nodes":[],"categories_segments":[],"categories_sizes":[],"default_left":[0,0,0,0,0,0,0,0,0,0,0,0,0,0,0,0,0,0,0,0,0,0,0,0,0,0,0,0,0,0,0,0,0,0,0,0,0,0,0,0,0,0,0,0,0,0,0,0,0,0,0],"id":13,"left_children":[1,3,5,7,9,11,13,-1,-1,15,17,19,21,23,25,27,29,31,33,35,37,39,41,43,45,47,49,-1,-1,-1,-1,-1,-1,-1,-1,-1,-1,-1,-1,-1,-1,-1,-1,-1,-1,-1,-1,-1,-1,-1,-1],"loss_changes":[1.0640638E1,5.3115573E0,6.024497E0,1.3781214E-1,2.317976E0,3.2402978E0,3.3700638E0,0E0,0E0,3.612401E0,1.6492195E0,2.4041095E0,3.5791378E0,2.4776764E0,3.531222E0,3.838214E0,3.7293434E0,2.2988245E0,1.3048792E0,2.3226445E0,1.2851286E0,2.118616E0,3.1870174E0,2.2632542E0,2.6561642E0,1.2568357E0,1.7567447E0,0E0,0E0,0E0,0E0,0E0,0E0,0E0,0E0,0E0,0E0,0E0,0E0,0E0,0E0,0E0,0E0,0E0,0E0,0E0,0E0,0E0,0E0,0E0,0E0],"parents":[2147483647,0,0,1,1,2,2,3,3,4,4,5,5,6,6,9,9,10,10,11,11,12,12,13,13,14,14,15,15,16,16,17,17,18,18,19,19,20,20,21,21,22,22,23,23,24,24,25,25,26,26],"right_children":[2,4,6,8,10,12,14,-1,-1,16,18,20,22,24,26,28,30,32,34,36,38,40,42,44,46,48,50,-1,-1,-1,-1,-1,-1,-1,-1,-1,-1,-1,-1,-1,-1,-1,-1,-1,-1,-1,-1,-1,-1,-1,-1],"split_conditions":[-7.57E0,-6.349E1,2.8E0,9.929141E-1,-1.355E1,-1.5268E2,5.71E1,7.802956E-2,2.0887127E-2,-2.745E1,7.9E0,1.1094853E0,7.1E0,2.8E0,-3.28E0,-1E-1,5.44E1,6.2838E2,7.5E0,1.06E1,5.34E0,3.075E1,1.756E1,8.5E0,7.81E0,1.1E1,1.02E1,-3.5176005E-2,2.7221099E-2,4.3628644E-2,-6.1557304E-2,-4.8728712E-2,7.8929074E-2,3.3725776E-2,-4.633317E-2,-2.9345501E-2,3.4381762E-2,-7.3930465E-2,9.425278E-3,4.984448E-2,-2.7685849E-2,-1.3168677E-2,2.57193E-2,3.5065424E-2,7.7825874E-2,-2.8908178E-2,5.4126214E-2,-1.540565E-2,7.956817E-2,-5.399868E-3,-7.169492E-2],"split_indices":[20,22,23,30,28,27,3,0,0,21,5,30,16,25,24,26,3,7,15,15,24,20,20,23,4,5,15,0,0,0,0,0,0,0,0,0,0,0,0,0,0,0,0,0,0,0,0,0,0,0,0],"split_type":[0,0,0,0,0,0,0,0,0,0,0,0,0,0,0,0,0,0,0,0,0,0,0,0,0,0,0,0,0,0,0,0,0,0,0,0,0,0,0,0,0,0,0,0,0,0,0,0,0,0,0],"sum_hessian":[4.2963364E2,1.5386642E2,2.7576724E2,5.467092E0,1.4839934E2,1.6201738E2,1.1374985E2,3.9889572E0,1.4781349E0,8.738072E1,6.101861E1,3.54204E1,1.2659698E2,8.9760605E1,2.3989244E1,6.820919E1,1.9171537E1,3.7311747E0,5.728743E1,2.312649E1,1.2293909E1,2.6260956E1,1.0033602E2,7.493711E1,1.482349E1,5.968022E0,1.8021223E1,5.7110672E1,1.1098516E1,1.5886087E1,3.2854502E0,1.7871723E0,1.9440023E0,1.4295835E0,5.585785E1,1.52814245E1,7.845065E0,1.0334622E1,1.9592867E0,2.2783731E1,3.4772253E0,7.164496E1,2.8691065E1,5.849464E1,1.6442474E1,9.849911E0,4.9735794E0,1.4843731E0,4.483649E0,1.3162247E1,4.858976E0],"tree_param":{"num_deleted":"0","num_feature":"35","num_nodes":"51","size_leaf_vector":"1"}},{"base_weights":[-1.0077681E-3,1.7022604E-1,-1.6078898E-1,4.9501055E-1,4.6685264E-2,-2.4759305E-1,9.512176E-2,1.557142E-1,7.8181714E-1,-1.1948077E-2,6.7164016E-1,-1.6489859E-1,-4.8306748E-1,4.6969953E-1,-7.786074E-2,-3.1431937E-1,6.548764E-1,-1.4717191E-2,8.5384923E-1,4.5275666E-2,-4.5929644E-1,-2.459201E-1,9.603022E-1,1.9656536E-1,-2.2934052E-1,1.6543569E-2,-5.257458E-1,6.220843E-1,-4.847029E-2,-2.4914192E-1,4.6132827E-1,-5.3880133E-2,1.4800339E-2,8.8347785E-2,-7.457827E-3,9.356947E-2,-1.3889422E-2,-1.7381298E-3,4.5442075E-2,2.6195219E-2,-5.8204796E-2,2.238471E-3,-4.0586647E-2,3.4877144E-2,1.12053774E-1,4.5534987E-2,-5.437705E-2,-2.5334066E-2,6.941607E-2,-6.1440464E-2,-3.412617E-2,-2.4016347E-2,8.308672E-2,-4.2585265E-2,2.44975E-2,7.723163E-2,-2.327515E-2],"categories":[],"categories_nodes":[],"categories_segments":[],"categories_sizes":[],"default_left":[0,0,0,0,0,0,0,0,0,0,0,0,0,0,0,0,0,0,0,0,0,0,0,0,0,0,0,0,0,0,0,0,0,0,0,0,0,0,0,0,0,0,0,0,0,0,0,0,0,0,0,0,0,0,0,0,0],"id":14,"left_children":[1,3,5,7,9,11,13,15,17,19,21,23,25,27,29,31,33,-1,35,37,39,41,43,45,47,-1,49,51,-1,53,55,-1,-1,-1,-1,-1,-1,-1,-1,-1,-1,-1,-1,-1,-1,-1,-1,-1,-1,-1,-1,-1,-1,-1,-1,-1,-1],"loss_changes":[1.0379197E1,7.3243794E0,4.382802E0,4.7785463E0,4.9095182E0,2.7791214E0,3.3039656E0,5.910932E0,1.9351158E0,3.1764295E0,3.2796383E0,2.6113768E0,1.1287184E0,2.6390715E0,3.379954E0,1.449587E0,2.0864353E0,0E0,2.180872E0,2.8330126E0,1.3981526E0,1.6125831E-1,4.8567295E-1,3.5444796E0,2.2584987E0,0E0,3.718605E-1,2.7734447E0,0E0,2.5037527E0,2.09517E0,0E0,0E0,0E0,0E0,0E0,0E0,0E0,0E0,0E0,0E0,0E0,0E0,0E0,0E0,0E0,0E0,0E0,0E0,0E0,0E0,0E0,0E0,0E0,0E0,0E0,0E0],"parents":[2147483647,0,0,1,1,2,2,3,3,4,4,5,5,6,6,7,7,8,8,9,9,10,10,11,11,12,12,13,13,14,14,15,15,16,16,18,18,19,19,20,20,21,21,22,22,23,23,24,24,26,26,27,27,29,29,30,30],"right_children":[2,4,6,8,10,12,14,16,18,20,22,24,26,28,30,32,34,-1,36,38,40,42,44,46,48,-1,50,52,-1,54,56,-1,-1,-1,-1,-1,-1,-1,-1,-1,-1,-1,-1,-1,-1,-1,-1,-1,-1,-1,-1,-1,-1,-1,-1,-1,-1],"split_conditions":[-3E-1,-1.0116E2,5.26E1,1.75557E3,4.6152E2,1.8E0,9.6E0,1.11E1,9.5E0,2.8072E2,9.3E0,-2.954E1,6.645197E-1,2.82236E3,1.2E1,4.25E0,1.53034E3,-1.4717191E-2,1.7634E2,1.7375E2,2.251E1,9.28E1,2.55833E3,2.2E0,5.961E1,1.6543569E-2,1.0859784E0,6.580689E-1,-4.847029E-2,1.1675732E0,2.272E1,-5.3880133E-2,1.4800339E-2,8.8347785E-2,-7.457827E-3,9.356947E-2,-1.3889422E-2,-1.7381298E-3,4.5442075E-2,2.6195219E-2,-5.8204796E-2,2.238471E-3,-4.0586647E-2,3.4877144E-2,1.12053774E-1,4.5534987E-2,-5.437705E-2,-2.5334066E-2,6.941607E-2,-6.1440464E-2,-3.412617E-2,-2.4016347E-2,8.308672E-2,-4.2585265E-2,2.44975E-2,7.723163E-2,-2.327515E-2],"split_indices":[26,27,13,7,1,25,6,16,15,27,16,22,30,17,15,22,17,0,10,27,9,10,7,26,20,0,30,30,0,30,22,0,0,0,0,0,0,0,0,0,0,0,0,0,0,0,0,0,0,0,0,0,0,0,0,0,0],"split_type":[0,0,0,0,0,0,0,0,0,0,0,0,0,0,0,0,0,0,0,0,0,0,0,0,0,0,0,0,0,0,0,0,0,0,0,0,0,0,0,0,0,0,0,0,0,0,0,0,0,0,0,0,0,0,0,0,0],"sum_hessian":[3.77357E2,1.8211896E2,1.9523802E2,4.935623E1,1.3276273E2,1.4581169E2,4.942633E1,2.3315994E1,2.6040237E1,1.2227203E2,1.0490694E1,1.0917252E2,3.663917E1,1.5072631E1,3.43537E1,1.2199089E1,1.1116905E1,1.7987561E0,2.4241482E1,1.09201965E2,1.30700655E1,2.5459707E0,7.944723E0,1.620819E1,9.296433E1,2.0847507E0,3.455442E1,1.3297654E1,1.7749765E0,2.6479908E1,7.8737926E0,8.100466E0,4.0986233E0,8.303538E0,2.8133674E0,2.244823E1,1.7932501E0,9.552992E1,1.3672048E1,1.7359824E0,1.1334084E1,1.2721047E0,1.2738659E0,2.3090339E0,5.6356893E0,1.2295307E1,3.912885E0,9.131684E1,1.6474869E0,2.1764511E1,1.2789908E1,2.562898E0,1.0734756E1,1.960628E1,6.873627E0,5.359642E0,2.5141504E0],"tree_param":{"num_deleted":"0","num_feature":"35","num_nodes":"57","size_leaf_vector":"1"}},{"base_weights":[2.3508952E-3,-1.5045667E-1,6.832647E-2,-1.6174262E-2,-3.714928E-1,3.7540033E-1,2.423342E-2,-3.6325946E-1,2.3940536E-1,-7.995717E-2,-5.344522E-1,-2.1122007E-1,5.580414E-1,8.51129E-2,-2.3590703E-1,6.0659826E-2,-4.5135257E-1,-5.271047E-2,3.5711458E-1,2.7156308E-1,-4.2839745E-1,1.3462123E-2,-5.702718E-1,-4.254519E-1,5.3803246E-2,2.7184603E-1,1.0419837E0,3.2445177E-2,5.966954E-1,3.4120682E-1,-3.1949264E-1,3.268039E-2,-5.1537868E-2,-4.8604026E-2,4.443076E-2,-2.3698421E-2,6.1816145E-2,-5.322621E-2,1.2925029E-2,-6.0907822E-2,1.1897205E-2,-5.4888982E-2,7.955914E-3,-3.0645376E-2,4.4592123E-2,1.1868065E-1,9.079273E-3,1.8904027E-2,-1.2273448E-2,-3.3475347E-2,9.219955E-2,-2.295359E-2,1.03978254E-1,-3.648262E-2,5.3866543E-2],"categories":[],"categories_nodes":[],"categories_segments":[],"categories_sizes":[],"default_left":[0,0,0,0,0,0,0,0,0,0,0,0,0,0,0,0,0,0,0,0,0,0,0,0,0,0,0,0,0,0,0,0,0,0,0,0,0,0,0,0,0,0,0,0,0,0,0,0,0,0,0,0,0,0,0],"id":15,"left_children":[1,3,5,7,9,11,13,15,17,19,21,23,25,27,29,-1,31,-1,33,35,37,-1,39,41,-1,43,45,47,49,51,53,-1,-1,-1,-1,-1,-1,-1,-1,-1,-1,-1,-1,-1,-1,-1,-1,-1,-1,-1,-1,-1,-1,-1,-1],"loss_changes":[3.4566364E0,3.0629966E0,3.2329936E0,5.8855953E0,1.8115711E0,3.331726E0,3.3530524E0,2.6761732E0,3.6392765E0,1.9744804E0,6.7257595E-1,1.488509E0,2.9229527E0,4.5954785E0,2.0470433E0,0E0,1.4812727E0,0E0,2.697411E0,1.5854797E0,5.32537E-1,0E0,7.087288E-1,4.5889175E-1,0E0,1.7372271E0,1.0286665E0,3.8224757E0,5.135308E0,2.4579797E0,1.5818601E0,0E0,0E0,0E0,0E0,0E0,0E0,0E0,0E0,0E0,0E0,0E0,0E0,0E0,0E0,0E0,0E0,0E0,0E0,0E0,0E0,0E0,0E0,0E0,0E0],"parents":[2147483647,0,0,1,1,2,2,3,3,4,4,5,5,6,6,7,7,8,8,9,9,10,10,11,11,12,12,13,13,14,14,16,16,18,18,19,19,20,20,22,22,23,23,25,25,26,26,27,27,28,28,29,29,30,30],"right_children":[2,4,6,8,10,12,14,16,18,20,22,24,26,28,30,-1,32,-1,34,36,38,-1,40,42,-1,44,46,48,50,52,54,-1,-1,-1,-1,-1,-1,-1,-1,-1,-1,-1,-1,-1,-1,-1,-1,-1,-1,-1,-1,-1,-1,-1,-1],"split_conditions":[-1.328E1,5.568E1,-2.4821E2,4E-1,-3.06E0,-3.689E1,2.7238E2,2.1E0,1.1234E2,5.39E1,-8.78E0,9.5291996E-1,-3.0487E2,1.11E1,-6.09E0,6.0659826E-2,7.888735E-1,-5.271047E-2,-4.0211E2,9.5741576E-1,8.354E1,1.3462123E-2,2.02E0,-3.85E0,5.3803246E-2,5.774E1,1.08E1,3.2E-1,4.6E1,2.45752E3,1.4E1,3.268039E-2,-5.1537868E-2,-4.8604026E-2,4.443076E-2,-2.3698421E-2,6.1816145E-2,-5.322621E-2,1.2925029E-2,-6.0907822E-2,1.1897205E-2,-5.4888982E-2,7.955914E-3,-3.0645376E-2,4.4592123E-2,1.1868065E-1,9.079273E-3,1.8904027E-2,-1.2273448E-2,-3.3475347E-2,9.219955E-2,-2.295359E-2,1.03978254E-1,-3.648262E-2,5.3866543E-2],"split_indices":[22,27,27,25,24,32,8,4,11,3,29,30,27,4,22,0,31,0,27,31,21,0,24,29,0,10,6,24,3,17,6,0,0,0,0,0,0,0,0,0,0,0,0,0,0,0,0,0,0,0,0,0,0,0,0],"split_type":[0,0,0,0,0,0,0,0,0,0,0,0,0,0,0,0,0,0,0,0,0,0,0,0,0,0,0,0,0,0,0,0,0,0,0,0,0,0,0,0,0,0,0,0,0,0,0,0,0,0,0,0,0,0,0],"sum_hessian":[3.4084723E2,1.0239871E2,2.3844852E2,6.436767E1,3.8031044E1,2.8996515E1,2.09452E2,2.711853E1,3.7249138E1,1.4170524E1,2.3860521E1,6.847316E0,2.21492E1,1.7027592E2,3.9176075E1,1.7679931E0,2.5350538E1,4.4956856E0,3.2753452E1,7.163916E0,7.006608E0,1.0723224E0,2.27882E1,5.6608796E0,1.1864357E0,1.4899574E1,7.249626E0,1.5534634E2,1.4929577E1,4.5662737E0,3.4609802E1,1.6152295E0,2.3735308E1,2.640974E0,3.0112478E1,3.0317826E0,4.1321335E0,5.944869E0,1.0617388E0,2.1683657E1,1.104543E0,4.4791675E0,1.1817125E0,3.2713313E0,1.16282425E1,6.076716E0,1.1729103E0,7.721194E1,7.813441E1,3.856887E0,1.107269E1,2.8825924E0,1.6836812E0,3.341925E1,1.190552E0],"tree_param":{"num_deleted":"0","num_feature":"35","num_nodes":"55","size_leaf_vector":"1"}},{"base_weights":[-7.600154E-4,-2.4030152E-1,8.885366E-2,6.918226E-2,-2.707195E-1,-2.030779E-2,2.4922848E-1,-2.107916E-1,-6.184164E-1,3.0752468E-1,-6.998708E-2,1.6876009E-1,5.590785E-1,-3.4913132E-1,3.0070513E-2,-6.720477E-1,-1.7850349E-3,1.633676E-2,9.206589E-2,7.167206E-1,-9.9224865E-2,-3.5267124E-1,2.2751859E-1,1.5566942E-1,7.782751E-1,-4.3832205E-2,1.9714952E-2,-5.3144373E-2,2.3922412E-2,-2.958951E-2,-7.2041325E-2,8.246454E-2,-2.3724167E-2,2.1891043E-2,8.32979E-2,-2.628821E-2,9.758593E-4,-5.705719E-2,5.9330743E-2,5.3506885E-3,3.7026312E-2,5.788091E-2,-2.637957E-2,5.155451E-3,8.734332E-2],"categories":[],"categories_nodes":[],"categories_segments":[],"categories_sizes":[],"default_left":[0,0,0,0,0,0,0,0,0,0,0,0,0,0,0,0,0,0,0,0,0,0,0,0,0,0,0,0,0,0,0,0,0,0,0,0,0,0,0,0,0,0,0,0,0],"id":16,"left_children":[1,3,5,-1,7,9,11,13,15,17,19,21,23,25,27,29,-1,31,-1,33,35,37,39,41,43,-1,-1,-1,-1,-1,-1,-1,-1,-1,-1,-1,-1,-1,-1,-1,-1,-1,-1,-1,-1],"loss_changes":[9.217495E0,3.5019011E0,5.475876E0,0E0,2.243534E0,3.0648398E0,3.0630813E0,3.2991214E0,5.108309E-1,4.408354E0,3.8223486E0,3.2041724E0,2.1491823E0,3.1447253E0,4.4639087E0,5.743885E-2,0E0,3.8474045E0,0E0,1.6290164E-1,2.822788E0,2.5478604E0,2.2714262E0,1.9789517E0,1.0881014E0,0E0,0E0,0E0,0E0,0E0,0E0,0E0,0E0,0E0,0E0,0E0,0E0,0E0,0E0,0E0,0E0,0E0,0E0,0E0,0E0],"parents":[2147483647,0,0,1,1,2,2,4,4,5,5,6,6,7,7,8,8,9,9,10,10,11,11,12,12,13,13,14,14,15,15,17,17,19,19,20,20,21,21,22,22,23,23,24,24],"right_children":[2,4,6,-1,8,10,12,14,16,18,20,22,24,26,28,30,-1,32,-1,34,36,38,40,42,44,-1,-1,-1,-1,-1,-1,-1,-1,-1,-1,-1,-1,-1,-1,-1,-1,-1,-1,-1,-1],"split_conditions":[-1.356E1,-6.349E1,2.8E0,6.918226E-2,4.7E0,6.2916E2,1.0662388E0,9.46E0,3.0661E2,1.14E1,7.8E0,-4E-1,-2.15E0,-1E-1,-5E0,5.14E1,-1.7850349E-3,-1.7E0,9.206589E-2,-1.56E0,5.2E0,1.17E1,9.6E0,1E1,-4.082E1,-4.3832205E-2,1.9714952E-2,-5.3144373E-2,2.3922412E-2,-2.958951E-2,-7.2041325E-2,8.246454E-2,-2.3724167E-2,2.1891043E-2,8.32979E-2,-2.628821E-2,9.758593E-4,-5.705719E-2,5.9330743E-2,5.3506885E-3,3.7026312E-2,5.788091E-2,-2.637957E-2,5.155451E-3,8.734332E-2],"split_indices":[20,22,23,0,23,7,31,27,27,6,5,25,24,26,26,3,0,25,0,24,14,6,6,16,22,0,0,0,0,0,0,0,0,0,0,0,0,0,0,0,0,0,0,0,0],"split_type":[0,0,0,0,0,0,0,0,0,0,0,0,0,0,0,0,0,0,0,0,0,0,0,0,0,0,0,0,0,0,0,0,0,0,0,0,0,0,0,0,0,0,0,0,0],"sum_hessian":[4.2740118E2,1.159037E2,3.114975E2,2.9756136E0,1.12928085E2,1.8586153E2,1.2563597E2,9.76958E1,1.5232283E1,2.3775743E1,1.6208578E2,1.0096095E2,2.4675018E1,6.176908E1,3.592672E1,1.387427E1,1.3580123E0,1.6816124E1,6.95962E0,4.965463E0,1.5712032E2,9.7182E0,9.124275E1,9.289259E0,1.5385758E1,5.3269455E1,8.499626E0,9.332052E0,2.659467E1,2.3916473E0,1.1482623E1,3.477902E0,1.3338222E1,1.4859024E0,3.4795606E0,6.2241695E1,9.4878624E1,8.221313E0,1.4968866E0,4.1737633E1,4.950512E1,4.435266E0,4.853993E0,1.9598905E0,1.3425868E1],"tree_param":{"num_deleted":"0","num_feature":"35","num_nodes":"45","size_leaf_vector":"1"}},{"base_weights":[-1.2695966E-3,2.4363375E-1,-9.7061396E-2,5.088936E-1,7.7125594E-2,-1.5915528E-1,9.7322024E-2,5.621348E-1,-4.5429457E-2,2.036194E-1,-3.876934E-1,-4.398376E-2,-3.139812E-1,-4.2685267E-2,5.610215E-1,6.589718E-1,-1.13428116E-1,2.69013E-1,-4.2307472E-1,-4.9202543E-1,2.322221E-2,-4.4427302E-1,3.07836E-2,6.319865E-2,-3.4040564E-1,3.7168067E-2,-6.0879733E-2,-2.3291534E-1,7.34417E-1,-1.6320636E-2,7.1026176E-2,4.6561565E-2,-5.224839E-2,1.2719253E-2,7.720923E-2,-5.664411E-2,1.6338045E-3,-2.5983343E-3,-6.2717065E-2,3.2038126E-2,-5.8378305E-2,-3.97479E-2,1.0423697E-2,-1.6967503E-2,-5.0236683E-2,2.5448645E-2,-1.9563558E-2,-3.9828006E-2,3.387944E-3,8.820247E-2,-3.8048122E-2],"categories":[],"categories_nodes":[],"categories_segments":[],"categories_sizes":[],"default_left":[0,0,0,0,0,0,0,0,0,0,0,0,0,0,0,0,0,0,0,0,0,0,0,0,0,0,0,0,0,0,0,0,0,0,0,0,0,0,0,0,0,0,0,0,0,0,0,0,0,0,0],"id":17,"left_children":[1,3,5,7,9,11,13,15,-1,17,19,21,23,25,27,29,31,33,35,37,-1,39,41,-1,43,45,-1,47,49,-1,-1,-1,-1,-1,-1,-1,-1,-1,-1,-1,-1,-1,-1,-1,-1,-1,-1,-1,-1,-1,-1],"loss_changes":[8.857216E0,4.649421E0,3.2911272E0,2.3455725E0,3.9828124E0,3.6605988E0,4.329783E0,2.6307764E0,0E0,2.2796266E0,1.0551691E0,3.584939E0,2.4082394E0,2.367543E0,2.2982664E0,1.5631695E0,1.6056056E0,3.3596995E0,3.483165E-1,7.8817487E-1,0E0,2.1973696E0,3.233756E0,0E0,2.292861E0,2.3973796E0,0E0,1.6918838E-1,2.462307E0,0E0,0E0,0E0,0E0,0E0,0E0,0E0,0E0,0E0,0E0,0E0,0E0,0E0,0E0,0E0,0E0,0E0,0E0,0E0,0E0,0E0,0E0],"parents":[2147483647,0,0,1,1,2,2,3,3,4,4,5,5,6,6,7,7,9,9,10,10,11,11,12,12,13,13,14,14,15,15,16,16,17,17,18,18,19,19,21,21,22,22,24,24,25,25,27,27,28,28],"right_children":[2,4,6,8,10,12,14,16,-1,18,20,22,24,26,28,30,32,34,36,38,-1,40,42,-1,44,46,-1,48,50,-1,-1,-1,-1,-1,-1,-1,-1,-1,-1,-1,-1,-1,-1,-1,-1,-1,-1,-1,-1,-1,-1],"split_conditions":[-1.464E1,-1.0562E2,5.26E1,6.22E1,1.79E0,9.79E0,1.1675732E0,4.428E1,-4.5429457E-2,9.9E0,3.635E1,-3.297E1,-9.418E1,1.1E1,-2.1E-1,-5.6671E2,1.163E1,4.3492E2,8.789519E-1,6.1E0,2.322221E-2,9.3491274E-1,-1.3E0,6.319865E-2,9.6833664E-1,9.7E0,-6.0879733E-2,1.04E1,4.1526E2,-1.6320636E-2,7.1026176E-2,4.6561565E-2,-5.224839E-2,1.2719253E-2,7.720923E-2,-5.664411E-2,1.6338045E-3,-2.5983343E-3,-6.2717065E-2,3.2038126E-2,-5.8378305E-2,-3.97479E-2,1.0423697E-2,-1.6967503E-2,-5.0236683E-2,2.5448645E-2,-1.9563558E-2,-3.9828006E-2,3.387944E-3,8.820247E-2,-3.8048122E-2],"split_indices":[20,27,13,13,29,20,30,9,0,6,22,21,34,16,29,27,4,1,30,6,0,31,25,0,30,6,0,6,12,0,0,0,0,0,0,0,0,0,0,0,0,0,0,0,0,0,0,0,0,0,0],"split_type":[0,0,0,0,0,0,0,0,0,0,0,0,0,0,0,0,0,0,0,0,0,0,0,0,0,0,0,0,0,0,0,0,0,0,0,0,0,0,0,0,0,0,0,0,0,0,0,0,0,0,0],"sum_hessian":[3.7554175E2,1.05155525E2,2.703862E2,3.9759468E1,6.539606E1,2.0506229E2,6.532391E1,3.8071415E1,1.6880542E0,5.184824E1,1.3547816E1,1.1832619E2,8.67361E1,5.087185E1,1.4452066E1,3.3319824E1,4.7515917E0,4.746605E1,4.3821917E0,1.17727585E1,1.7750578E0,1.7845097E1,1.00481094E2,1.7342687E0,8.500183E1,4.5401985E1,5.4698644E0,2.5290203E0,1.1923046E1,1.8284082E0,3.1491415E1,1.9098341E0,2.8417578E0,3.8005066E1,9.460983E0,3.086182E0,1.2960093E0,2.9144993E0,8.858259E0,2.5534053E0,1.5291691E1,1.4065028E1,8.641606E1,4.237747E1,4.2624367E1,2.343379E1,2.1968197E1,1.2570454E0,1.2719748E0,1.07135E1,1.209546E0],"tree_param":{"num_deleted":"0","num_feature":"35","num_nodes":"51","size_leaf_vector":"1"}},{"base_weights":[2.8736284E-3,2.835461E-2,-3.6285084E-1,1.5639307E-1,-4.2976093E-2,-4.3566933E-1,3.9969288E-2,1.2094214E-1,8.0573505E-1,4.6331737E-2,-2.2737032E-1,-5.5518264E-1,1.5472604E-1,1.5701547E-1,-5.402675E-2,1.2424185E-1,-3.6587495E-2,2.8942868E-1,-7.3285185E-2,-2.905693E-1,3.0064392E-1,1.1483001E-2,-6.0717463E-2,-4.5664106E-2,8.743888E-2,7.841344E-3,4.8918854E-2,5.029115E-2,-4.385132E-2,-2.3505015E-2,1.5566582E-2,-4.063675E-2,-2.6773133E-3,1.0617603E-1,-1.92445E-2],"categories":[],"categories_nodes":[],"categories_segments":[],"categories_sizes":[],"default_left":[0,0,0,0,0,0,0,0,0,0,0,0,0,0,0,0,0,0,0,0,0,0,0,0,0,0,0,0,0,0,0,0,0,0,0],"id":18,"left_children":[1,3,5,7,9,11,-1,13,15,17,19,21,23,25,-1,-1,-1,27,29,31,33,-1,-1,-1,-1,-1,-1,-1,-1,-1,-1,-1,-1,-1,-1],"loss_changes":[3.1848378E0,2.9237523E0,1.4102125E0,2.5380476E0,3.401326E0,1.5534618E0,0E0,2.7023041E0,3.3965611E0,4.079086E0,2.3349848E0,6.7986965E-1,2.2839367E0,2.6988435E0,0E0,0E0,0E0,7.40372E0,3.5300708E0,1.8422093E0,3.09094E0,0E0,0E0,0E0,0E0,0E0,0E0,0E0,0E0,0E0,0E0,0E0,0E0,0E0,0E0],"parents":[2147483647,0,0,1,1,2,2,3,3,4,4,5,5,7,7,8,8,9,9,10,10,11,11,12,12,13,13,17,17,18,18,19,19,20,20],"right_children":[2,4,6,8,10,12,-1,14,16,18,20,22,24,26,-1,-1,-1,28,30,32,34,-1,-1,-1,-1,-1,-1,-1,-1,-1,-1,-1,-1,-1,-1],"split_conditions":[1.08E1,8.4E0,6.37E1,3.449E2,5.892E1,3.73E0,3.9969288E-2,4.4644E2,4.662E1,4.53E0,1.2822E2,7.461E1,2.4916E2,2.4526E2,-5.402675E-2,1.2424185E-1,-3.6587495E-2,4E0,9.79E0,1.09E1,3.144E1,1.1483001E-2,-6.0717463E-2,-4.5664106E-2,8.743888E-2,7.841344E-3,4.8918854E-2,5.029115E-2,-4.385132E-2,-2.3505015E-2,1.5566582E-2,-4.063675E-2,-2.6773133E-3,1.0617603E-1,-1.92445E-2],"split_indices":[23,6,3,8,27,22,0,11,19,4,10,2,1,18,0,0,0,26,20,15,9,0,0,0,0,0,0,0,0,0,0,0,0,0,0],"split_type":[0,0,0,0,0,0,0,0,0,0,0,0,0,0,0,0,0,0,0,0,0,0,0,0,0,0,0,0,0,0,0,0,0,0,0],"sum_hessian":[3.3965277E2,3.1839203E2,2.1260736E1,1.1348829E2,2.0490375E2,1.9798735E1,1.4620017E0,1.08737976E2,4.7503138E0,1.3854895E2,6.6354805E1,1.6515217E1,3.2835195E0,1.03835594E2,4.9023814E0,3.4164824E0,1.3338312E0,4.522294E1,9.332601E1,5.9663292E1,6.691512E0,1.1022389E0,1.5412977E1,1.9729449E0,1.3105747E0,8.496614E1,1.8869453E1,3.520696E1,1.0015979E1,5.467139E1,3.865462E1,4.1086952E1,1.857634E1,2.1773462E0,4.514166E0],"tree_param":{"num_deleted":"0","num_feature":"35","num_nodes":"35","size_leaf_vector":"1"}},{"base_weights":[-5.514351E-4,-1.4880379E-1,1.276345E-1,5.675493E-1,-1.7752247E-1,5.8620745E-1,9.195116E-2,-1.4839157E-2,7.559239E-2,4.192067E-1,-2.1028648E-1,-1.4603598E-1,7.9335725E-1,6.393937E-2,6.627591E-1,-4.5396443E-2,6.0587406E-1,-6.933315E-2,-1.8358259E-1,-6.374112E-2,5.1051874E-2,8.613285E-2,1.6338822E-2,5.645008E-1,3.572427E-2,3.194142E-3,8.15025E-2,7.484957E-2,-8.271063E-3,7.277065E-2,-1.9544313E-2,8.378152E-2,6.2204353E-3,1.5080298E-3,6.850173E-2],"categories":[],"categories_nodes":[],"categories_segments":[],"categories_sizes":[],"default_left":[0,0,0,0,0,0,0,0,0,0,0,0,0,0,0,0,0,0,0,0,0,0,0,0,0,0,0,0,0,0,0,0,0,0,0],"id":19,"left_children":[1,3,5,7,9,11,13,-1,-1,15,17,19,21,23,25,-1,27,-1,29,-1,-1,-1,-1,31,33,-1,-1,-1,-1,-1,-1,-1,-1,-1,-1],"loss_changes":[8.11638E0,4.175028E0,3.6941183E0,1.1738014E0,3.8257828E0,2.5959516E0,3.3745248E0,0E0,0E0,1.9512874E0,2.2189074E0,1.7610577E0,4.1165733E-1,2.8724284E0,9.238906E-1,0E0,9.360666E-1,0E0,2.0198393E0,0E0,0E0,0E0,0E0,1.4389184E0,2.60275E0,0E0,0E0,0E0,0E0,0E0,0E0,0E0,0E0,0E0,0E0],"parents":[2147483647,0,0,1,1,2,2,3,3,4,4,5,5,6,6,9,9,10,10,11,11,12,12,13,13,14,14,16,16,18,18,23,23,24,24],"right_children":[2,4,6,8,10,12,14,-1,-1,16,18,20,22,24,26,-1,28,-1,30,-1,-1,-1,-1,32,34,-1,-1,-1,-1,-1,-1,-1,-1,-1,-1],"split_conditions":[-1.58E0,-6.349E1,4.21E1,2.8E0,7.6E0,-2.53E0,4.6938E2,-1.4839157E-2,7.559239E-2,9.959E1,-8.357E1,4.798E1,3.485E1,9.444E1,-4.082E1,-4.5396443E-2,4.556E1,-6.933315E-2,7.7E0,-6.374112E-2,5.1051874E-2,8.613285E-2,1.6338822E-2,1.917E1,1.63E1,3.194142E-3,8.15025E-2,7.484957E-2,-8.271063E-3,7.277065E-2,-1.9544313E-2,8.378152E-2,6.2204353E-3,1.5080298E-3,6.850173E-2],"split_indices":[20,22,13,23,16,24,27,0,0,1,33,27,28,1,22,0,22,0,15,0,0,0,0,28,6,0,0,0,0,0,0,0,0,0,0],"split_type":[0,0,0,0,0,0,0,0,0,0,0,0,0,0,0,0,0,0,0,0,0,0,0,0,0,0,0,0,0,0,0,0,0,0,0],"sum_hessian":[4.2509158E2,1.970427E2,2.280489E2,6.8717875E0,1.901709E2,1.5350378E1,2.1269853E2,1.4756497E0,5.396138E0,9.284166E0,1.8088673E2,3.4500377E0,1.190034E1,2.0380884E2,8.889686E0,1.382997E0,7.9011693E0,8.168243E0,1.7271849E2,1.9899142E0,1.4601235E0,1.0409899E1,1.4904414E0,9.860878E0,1.9394797E2,1.9637786E0,6.925907E0,6.4733787E0,1.4277908E0,1.4436313E0,1.7127486E2,5.9534564E0,3.907421E0,1.889632E2,4.984772E0],"tree_param":{"num_deleted":"0","num_feature":"35","num_nodes":"35","size_leaf_vector":"1"}},{"base_weights":[-1.9860235E-3,1.4490454E-1,-1.4302215E-1,4.2656654E-1,3.635173E-2,-2.2338265E-1,8.7026745E-2,1.2338654E-1,6.7948836E-1,-2.9738193E-2,5.1108265E-1,-1.4466397E-1,-4.5430684E-1,4.224228E-1,-7.275604E-2,-2.0169675E-1,7.475546E-1,-1.6546335E-2,7.45495E-1,5.4627705E-1,-7.1710825E-2,7.1176656E-2,8.3021533E-1,-3.7208732E-2,-3.6982664E-1,1.5997862E-2,-4.9727997E-1,5.61673E-1,-4.7554262E-2,-2.3669448E-1,4.27704E-1,5.254097E-3,-6.4274006E-2,9.171951E-2,-7.2848885E-3,8.195292E-2,-1.5043668E-2,-4.2867783E-2,7.993152E-2,-2.228363E-2,9.072504E-3,7.746085E-2,-2.8494734E-2,6.612461E-5,9.596129E-2,-5.7982773E-2,2.7822852E-3,1.1344858E-2,-4.9211666E-2,-5.9111338E-2,-3.04284E-2,-2.4054285E-2,7.516959E-2,-4.031474E-2,2.0708932E-2,7.073154E-2,-2.2147885E-2],"categories":[],"categories_nodes":[],"categories_segments":[],"categories_sizes":[],"default_left":[0,0,0,0,0,0,0,0,0,0,0,0,0,0,0,0,0,0,0,0,0,0,0,0,0,0,0,0,0,0,0,0,0,0,0,0,0,0,0,0,0,0,0,0,0,0,0,0,0,0,0,0,0,0,0,0,0],"id":20,"left_children":[1,3,5,7,9,11,13,15,17,19,21,23,25,27,29,31,33,-1,35,37,39,41,43,45,47,-1,49,51,-1,53,55,-1,-1,-1,-1,-1,-1,-1,-1,-1,-1,-1,-1,-1,-1,-1,-1,-1,-1,-1,-1,-1,-1,-1,-1,-1,-1],"loss_changes":[7.781091E0,5.609848E0,3.5616553E0,3.8337011E0,4.216154E0,2.5207114E0,2.727623E0,5.1134152E0,1.6644106E0,2.9035997E0,2.245719E0,2.5890954E0,1.0220785E0,2.3159504E0,2.9677665E0,1.9253318E0,1.2620873E0,0E0,1.8352995E0,2.3564286E0,2.7528005E0,2.2238805E0,1.0106406E0,2.625149E0,2.103187E0,0E0,4.288578E-1,2.4131403E0,0E0,2.0751023E0,1.7862004E0,0E0,0E0,0E0,0E0,0E0,0E0,0E0,0E0,0E0,0E0,0E0,0E0,0E0,0E0,0E0,0E0,0E0,0E0,0E0,0E0,0E0,0E0,0E0,0E0,0E0,0E0],"parents":[2147483647,0,0,1,1,2,2,3,3,4,4,5,5,6,6,7,7,8,8,9,9,10,10,11,11,12,12,13,13,14,14,15,15,16,16,18,18,19,19,20,20,21,21,22,22,23,23,24,24,26,26,27,27,29,29,30,30],"right_children":[2,4,6,8,10,12,14,16,18,20,22,24,26,28,30,32,34,-1,36,38,40,42,44,46,48,-1,50,52,-1,54,56,-1,-1,-1,-1,-1,-1,-1,-1,-1,-1,-1,-1,-1,-1,-1,-1,-1,-1,-1,-1,-1,-1,-1,-1,-1,-1],"split_conditions":[-3E-1,-1.0116E2,5.26E1,1.75557E3,4.3492E2,1.8E0,9.6E0,1.14E1,9.5E0,-9.7E0,1E1,5.01E1,6.645197E-1,2.82236E3,1.2E1,2.5045E2,1.29E1,-1.6546335E-2,1.7634E2,6.2E0,-9.11E0,1.082E1,7.923742E-1,4.38E1,-1.8677E2,1.5997862E-2,1.0859784E0,6.580689E-1,-4.7554262E-2,1.1675732E0,2.272E1,5.254097E-3,-6.4274006E-2,9.171951E-2,-7.2848885E-3,8.195292E-2,-1.5043668E-2,-4.2867783E-2,7.993152E-2,-2.228363E-2,9.072504E-3,7.746085E-2,-2.8494734E-2,6.612461E-5,9.596129E-2,-5.7982773E-2,2.7822852E-3,1.1344858E-2,-4.9211666E-2,-5.9111338E-2,-3.04284E-2,-2.4054285E-2,7.516959E-2,-4.031474E-2,2.0708932E-2,7.073154E-2,-2.2147885E-2],"split_indices":[26,27,13,7,1,25,6,16,15,23,16,13,30,17,15,11,16,0,10,6,28,14,30,13,27,0,30,30,0,30,22,0,0,0,0,0,0,0,0,0,0,0,0,0,0,0,0,0,0,0,0,0,0,0,0,0,0],"split_type":[0,0,0,0,0,0,0,0,0,0,0,0,0,0,0,0,0,0,0,0,0,0,0,0,0,0,0,0,0,0,0,0,0,0,0,0,0,0,0,0,0,0,0,0,0,0,0,0,0,0,0,0,0,0,0,0,0],"sum_hessian":[3.7359152E2,1.8298419E2,1.9060733E2,5.0088913E1,1.3289528E2,1.4128333E2,4.9324E1,2.3457731E1,2.6631182E1,1.174779E2,1.5417391E1,1.06578674E2,3.4704655E1,1.5385323E1,3.393868E1,1.5869388E1,7.588343E0,1.8204772E0,2.4810703E1,7.162846E0,1.1031505E2,6.996353E0,8.421038E0,7.293627E1,3.3642403E1,2.0910525E0,3.26136E1,1.364401E1,1.7413129E0,2.5961407E1,7.977274E0,1.0625328E1,5.244059E0,6.190343E0,1.3980002E0,2.2995756E1,1.8149471E0,1.3329334E0,5.8299127E0,5.695447E1,5.3360577E1,1.9565603E0,5.039793E0,1.2719307E0,7.149107E0,6.958547E0,6.597772E1,6.808468E0,2.6833935E1,2.055639E1,1.2057212E1,2.5620394E0,1.108197E1,1.8946562E1,7.014844E0,5.5131445E0,2.4641294E0],"tree_param":{"num_deleted":"0","num_feature":"35","num_nodes":"57","size_leaf_vector":"1"}},{"base_weights":[2.9956282E-3,-1.4270605E-1,6.484332E-2,-3.150719E-1,1.6249336E-2,3.5377872E-1,2.2923114E-2,-3.7985194E-1,5.752678E-1,1.6249007E-1,-3.9991948E-1,-1.9993727E-1,5.198174E-1,7.13515E-2,-2.742992E-1,2.8300062E-1,-4.6220994E-1,-3.2315854E-2,1.0352315E-1,3.7583274E-1,-2.494053E-1,1.6316941E-1,-5.1439774E-1,-4.1026524E-1,4.9864247E-2,1.7863337E-2,7.3272854E-1,-2.4779633E-1,1.1110177E-1,4.7638056E-1,-4.3658194E-1,6.9763996E-2,-4.2103063E-2,-6.1302293E-2,-2.7198443E-2,7.559666E-2,1.0656299E-2,-3.5560258E-2,4.758324E-2,-3.3315238E-2,5.6117624E-2,2.2786742E-3,-5.8810364E-2,-5.3360075E-2,7.4713095E-3,4.329769E-2,-5.0395112E-2,9.814829E-2,8.839496E-3,9.729575E-3,-5.935982E-2,-3.599014E-2,1.4578399E-2,1.172295E-1,-2.2423334E-2,-5.08386E-2,5.4870587E-2],"categories":[],"categories_nodes":[],"categories_segments":[],"categories_sizes":[],"default_left":[0,0,0,0,0,0,0,0,0,0,0,0,0,0,0,0,0,0,0,0,0,0,0,0,0,0,0,0,0,0,0,0,0,0,0,0,0,0,0,0,0,0,0,0,0,0,0,0,0,0,0,0,0,0,0,0,0],"id":21,"left_children":[1,3,5,7,9,11,13,15,17,19,21,23,25,27,29,31,33,-1,-1,35,37,39,41,43,-1,45,47,49,51,53,55,-1,-1,-1,-1,-1,-1,-1,-1,-1,-1,-1,-1,-1,-1,-1,-1,-1,-1,-1,-1,-1,-1,-1,-1,-1,-1],"loss_changes":[3.0708458E0,2.7875612E0,2.8890793E0,3.0314488E0,3.3382912E0,2.8838997E0,3.0417058E0,2.6455784E0,1.8658383E0,3.653502E0,1.004056E0,1.3355911E0,2.5026412E0,2.3279824E0,3.8167467E0,1.960947E0,1.019659E0,0E0,0E0,2.6919076E0,1.2800946E0,8.1332386E-1,4.9260902E-1,4.2656767E-1,0E0,1.9588782E0,2.558486E0,2.4913888E0,2.6978476E0,3.0633783E0,2.0391107E0,0E0,0E0,0E0,0E0,0E0,0E0,0E0,0E0,0E0,0E0,0E0,0E0,0E0,0E0,0E0,0E0,0E0,0E0,0E0,0E0,0E0,0E0,0E0,0E0,0E0,0E0],"parents":[2147483647,0,0,1,1,2,2,3,3,4,4,5,5,6,6,7,7,8,8,9,9,10,10,11,11,12,12,13,13,14,14,15,15,16,16,19,19,20,20,21,21,22,22,23,23,25,25,26,26,27,27,28,28,29,29,30,30],"right_children":[2,4,6,8,10,12,14,16,18,20,22,24,26,28,30,32,34,-1,-1,36,38,40,42,44,-1,46,48,50,52,54,56,-1,-1,-1,-1,-1,-1,-1,-1,-1,-1,-1,-1,-1,-1,-1,-1,-1,-1,-1,-1,-1,-1,-1,-1,-1,-1],"split_conditions":[-1.328E1,1.213E1,-2.4821E2,1.25E1,5.12E1,-3.689E1,1.1519719E0,2.1E0,1.0831E2,5.568E1,-3.573E1,9.5291996E-1,-8.92E0,-1.3749E2,7.448455E-1,8.426333E-1,2.0803E2,-3.2315854E-2,1.0352315E-1,5.72E0,1.41E1,8E-1,-1.906E1,-3.85E0,4.9864247E-2,-1.1E-1,5.086E1,1E1,5.8861E2,-4E-1,1.3140123E0,6.9763996E-2,-4.2103063E-2,-6.1302293E-2,-2.7198443E-2,7.559666E-2,1.0656299E-2,-3.5560258E-2,4.758324E-2,-3.3315238E-2,5.6117624E-2,2.2786742E-3,-5.8810364E-2,-5.3360075E-2,7.4713095E-3,4.329769E-2,-5.0395112E-2,9.814829E-2,8.839496E-3,9.729575E-3,-5.935982E-2,-3.599014E-2,1.4578399E-2,1.172295E-1,-2.2423334E-2,-5.08386E-2,5.4870587E-2],"split_indices":[22,28,27,6,13,32,30,4,1,27,22,30,21,27,31,30,8,0,0,4,5,25,32,29,0,29,34,16,7,24,31,0,0,0,0,0,0,0,0,0,0,0,0,0,0,0,0,0,0,0,0,0,0,0,0,0,0],"split_type":[0,0,0,0,0,0,0,0,0,0,0,0,0,0,0,0,0,0,0,0,0,0,0,0,0,0,0,0,0,0,0,0,0,0,0,0,0,0,0,0,0,0,0,0,0,0,0,0,0,0,0,0,0,0,0,0,0],"sum_hessian":[3.387499E2,1.0055458E2,2.3819531E2,4.7771088E1,5.2783497E1,2.9237339E1,2.0895798E2,4.5065536E1,2.7055497E0,3.950951E1,1.327399E1,6.697603E0,2.2539736E1,1.8033478E2,2.8623194E1,4.7112384E0,4.0354298E1,1.0168362E0,1.6887137E0,2.608582E1,1.342369E1,2.1708434E0,1.1103147E1,5.464938E0,1.232665E0,7.0359216E0,1.5503815E1,1.9393557E1,1.6094122E2,4.743845E0,2.3879349E1,2.970714E0,1.7405244E0,2.1269209E1,1.9085089E1,1.0066813E1,1.6019005E1,1.2153688E1,1.2700019E0,1.038617E0,1.1322262E0,1.4229825E0,9.680163E0,4.276993E0,1.1879451E0,4.0134172E0,3.022504E0,1.0807983E1,4.6958313E0,1.0066428E1,9.327128E0,1.03949585E1,1.5054626E2,2.0421517E0,2.7016933E0,2.2708464E1,1.1708848E0],"tree_param":{"num_deleted":"0","num_feature":"35","num_nodes":"57","size_leaf_vector":"1"}},{"base_weights":[-4.5731346E-4,-1.7484985E-1,9.4741866E-2,6.0399586E-1,-2.0780286E-1,-8.187826E-3,2.42379E-1,6.957286E-2,1.7343165E-2,-6.975428E-2,-1.7330346E-1,-3.9876327E-2,5.5335945E-1,1.6224825E-1,5.83731E-1,2.776278E-1,-2.126025E-1,2.1255907E-1,-1.3270581E-1,7.9909104E-1,-4.5008507E-2,5.991846E-2,4.5315364E-1,-7.1375095E-3,6.7227405E-1,-5.2999556E-2,4.906571E-2,-1.0156881E-2,-3.7227906E-2,2.941313E-3,7.009442E-2,1.7342579E-3,-4.04641E-2,2.3849519E-2,8.959434E-2,1.5083826E-2,-3.862308E-2,-8.985661E-3,5.9605688E-2,8.295124E-2,2.430567E-2],"categories":[],"categories_nodes":[],"categories_segments":[],"categories_sizes":[],"default_left":[0,0,0,0,0,0,0,0,0,0,0,0,0,0,0,0,0,0,0,0,0,0,0,0,0,0,0,0,0,0,0,0,0,0,0,0,0,0,0,0,0],"id":22,"left_children":[1,3,5,7,9,11,13,-1,-1,-1,15,17,19,21,23,25,27,29,31,33,-1,35,37,-1,39,-1,-1,-1,-1,-1,-1,-1,-1,-1,-1,-1,-1,-1,-1,-1,-1],"loss_changes":[7.0534644E0,3.975965E0,4.1784024E0,1.2998176E-1,2.3235831E0,2.920839E0,2.9942493E0,0E0,0E0,0E0,2.4777708E0,3.6635106E0,2.5218644E0,2.736695E0,1.271018E0,2.217129E0,2.198121E0,3.744525E0,4.6601987E0,1.883316E-1,0E0,2.8911126E0,1.9165573E0,0E0,1.0584373E0,0E0,0E0,0E0,0E0,0E0,0E0,0E0,0E0,0E0,0E0,0E0,0E0,0E0,0E0,0E0,0E0],"parents":[2147483647,0,0,1,1,2,2,3,3,4,4,5,5,6,6,10,10,11,11,12,12,13,13,14,14,15,15,16,16,17,17,18,18,19,19,21,21,22,22,24,24],"right_children":[2,4,6,8,10,12,14,-1,-1,-1,16,18,20,22,24,26,28,30,32,34,-1,36,38,-1,40,-1,-1,-1,-1,-1,-1,-1,-1,-1,-1,-1,-1,-1,-1,-1,-1],"split_conditions":[-7.57E0,-6.349E1,3E0,9.929141E-1,-3.423E1,6E1,1.059642E0,6.957286E-2,1.7343165E-2,-6.975428E-2,-2.278E1,7.4E0,1.0990707E0,2.6411E2,-9.42E0,1.1049E2,1E1,2.185E1,7.64E0,1.0498E2,-4.5008507E-2,5.7E1,9.1E0,-7.1375095E-3,1.04E1,-5.2999556E-2,4.906571E-2,-1.0156881E-2,-3.7227906E-2,2.941313E-3,7.009442E-2,1.7342579E-3,-4.04641E-2,2.3849519E-2,8.959434E-2,1.5083826E-2,-3.862308E-2,-8.985661E-3,5.9605688E-2,8.295124E-2,2.430567E-2],"split_indices":[20,22,23,30,22,13,31,0,0,0,22,16,30,27,29,2,5,22,22,1,0,3,6,0,16,0,0,0,0,0,0,0,0,0,0,0,0,0,0,0,0],"split_type":[0,0,0,0,0,0,0,0,0,0,0,0,0,0,0,0,0,0,0,0,0,0,0,0,0,0,0,0,0,0,0,0,0,0,0,0,0,0,0,0,0],"sum_hessian":[4.2285782E2,1.490256E2,2.738322E2,5.345905E0,1.4367969E2,1.6190193E2,1.1193029E2,3.8992972E0,1.4466075E0,8.190572E0,1.3548912E2,1.5413309E2,7.7688475E0,9.1845345E1,2.0084944E1,1.0375253E1,1.2511387E2,4.109414E1,1.1303894E2,6.4041896E0,1.3646578E0,6.8837E1,2.3008347E1,2.414512E0,1.7670431E1,1.8549567E0,8.520296E0,7.476258E1,5.0351284E1,3.065765E1,1.043649E1,7.344802E1,3.9590916E1,1.4535112E0,4.950679E0,5.773352E1,1.110348E1,4.8708973E0,1.813745E1,1.22501335E1,5.4202986E0],"tree_param":{"num_deleted":"0","num_feature":"35","num_nodes":"41","size_leaf_vector":"1"}},{"base_weights":[-2.2115884E-3,1.3551511E-1,-1.3587381E-1,4.0033865E-1,3.313279E-2,-2.1343033E-1,8.380571E-2,-1.7706518E-1,5.16603E-1,-2.9424308E-2,4.79632E-1,-1.3726632E-1,-4.407812E-1,3.987214E-1,-6.858565E-2,7.248356E-2,-5.1467943E-1,6.578609E-2,6.139782E-1,1.9616615E-2,-4.7989526E-1,6.922905E-1,-6.3624196E-2,-3.362385E-2,-3.5744095E-1,1.502113E-2,-4.835722E-1,5.297569E-1,-4.6533264E-2,-2.2619763E-1,4.0142098E-1,-6.2008638E-2,-1.0469705E-3,-3.9734248E-2,5.2450586E-2,7.901057E-2,2.0128373E-2,-3.859058E-3,4.0828567E-2,2.3675451E-2,-6.322526E-2,1.702162E-2,9.077554E-2,5.6085516E-2,-5.068135E-2,-5.6355424E-2,2.7150514E-3,1.0356766E-2,-4.7750525E-2,-5.781371E-2,-2.9192572E-2,-1.3365078E-2,7.457521E-2,-3.8950723E-2,1.9821407E-2,6.636749E-2,-2.179305E-2],"categories":[],"categories_nodes":[],"categories_segments":[],"categories_sizes":[],"default_left":[0,0,0,0,0,0,0,0,0,0,0,0,0,0,0,0,0,0,0,0,0,0,0,0,0,0,0,0,0,0,0,0,0,0,0,0,0,0,0,0,0,0,0,0,0,0,0,0,0,0,0,0,0,0,0,0,0],"id":23,"left_children":[1,3,5,7,9,11,13,15,17,19,21,23,25,27,29,-1,31,33,35,37,39,41,43,45,47,-1,49,51,-1,53,55,-1,-1,-1,-1,-1,-1,-1,-1,-1,-1,-1,-1,-1,-1,-1,-1,-1,-1,-1,-1,-1,-1,-1,-1,-1,-1],"loss_changes":[6.876635E0,4.975194E0,3.247602E0,3.5291214E0,3.7507663E0,2.3703766E0,2.4355164E0,3.2132502E0,1.84198E0,2.6224127E0,1.9499812E0,2.4207227E0,9.5208645E-1,2.1158962E0,2.6590643E0,0E0,3.8529503E-1,2.064508E0,2.3954248E0,2.45068E0,1.4219117E0,1.1886644E0,1.8222283E0,2.3853712E0,1.9323578E0,0E0,4.232111E-1,2.2210145E0,0E0,1.9210435E0,1.6173362E0,0E0,0E0,0E0,0E0,0E0,0E0,0E0,0E0,0E0,0E0,0E0,0E0,0E0,0E0,0E0,0E0,0E0,0E0,0E0,0E0,0E0,0E0,0E0,0E0,0E0,0E0],"parents":[2147483647,0,0,1,1,2,2,3,3,4,4,5,5,6,6,7,7,8,8,9,9,10,10,11,11,12,12,13,13,14,14,16,16,17,17,18,18,19,19,20,20,21,21,22,22,23,23,24,24,26,26,27,27,29,29,30,30],"right_children":[2,4,6,8,10,12,14,16,18,20,22,24,26,28,30,-1,32,34,36,38,40,42,44,46,48,-1,50,52,-1,54,56,-1,-1,-1,-1,-1,-1,-1,-1,-1,-1,-1,-1,-1,-1,-1,-1,-1,-1,-1,-1,-1,-1,-1,-1,-1,-1],"split_conditions":[-3E-1,-1.0116E2,5.26E1,6.9E0,4.3492E2,1.8E0,9.6E0,-4.86E0,8.341931E-1,2.8072E2,-1E0,5.01E1,6.645197E-1,2.82236E3,1.2E1,7.248356E-2,2.348E1,1.03E1,1.059642E0,1.7375E2,2.251E1,4.72E1,2.59409E3,4.38E1,-1.8677E2,1.502113E-2,1.0859784E0,7.415683E-1,-4.6533264E-2,1.1675732E0,2.272E1,-6.2008638E-2,-1.0469705E-3,-3.9734248E-2,5.2450586E-2,7.901057E-2,2.0128373E-2,-3.859058E-3,4.0828567E-2,2.3675451E-2,-6.322526E-2,1.702162E-2,9.077554E-2,5.6085516E-2,-5.068135E-2,-5.6355424E-2,2.7150514E-3,1.0356766E-2,-4.7750525E-2,-5.781371E-2,-2.9192572E-2,-1.3365078E-2,7.457521E-2,-3.8950723E-2,1.9821407E-2,6.636749E-2,-2.179305E-2],"split_indices":[26,27,13,6,1,25,6,29,31,27,26,13,30,17,15,0,33,15,31,27,9,3,7,13,27,0,30,31,0,30,22,0,0,0,0,0,0,0,0,0,0,0,0,0,0,0,0,0,0,0,0,0,0,0,0,0,0],"split_type":[0,0,0,0,0,0,0,0,0,0,0,0,0,0,0,0,0,0,0,0,0,0,0,0,0,0,0,0,0,0,0,0,0,0,0,0,0,0,0,0,0,0,0,0,0,0,0,0,0,0,0,0,0,0,0,0,0],"sum_hessian":[3.7155017E2,1.82986E2,1.8856418E2,5.020773E1,1.3277826E2,1.3938396E2,4.9180214E1,8.327564E0,4.1880165E1,1.1728067E2,1.5497595E1,1.0560828E2,3.3775692E1,1.5510807E1,3.3669407E1,1.955832E0,6.3717327E0,7.7367964E0,3.4143368E1,1.06628876E2,1.0651794E1,1.0940559E1,4.557035E0,7.2590546E1,3.3017727E1,2.1109352E0,3.1664757E1,1.3804257E1,1.7065496E0,2.5602575E1,8.066831E0,5.0799346E0,1.2917979E0,3.9164782E0,3.8203185E0,2.3289495E1,1.0853871E1,9.352348E1,1.3105394E1,1.7703903E0,8.881404E0,3.7191083E0,7.2214513E0,1.7814173E0,2.7756178E0,6.61729E0,6.597326E1,6.8506846E0,2.6167044E1,1.985228E1,1.1812475E1,3.4841788E0,1.0320079E1,1.85478E1,7.054775E0,5.6168895E0,2.449941E0],"tree_param":{"num_deleted":"0","num_feature":"35","num_nodes":"57","size_leaf_vector":"1"}},{"base_weights":[3.2763379E-3,2.7022725E-2,-3.4847072E-1,2.1915388E-1,-1.6505945E-2,4.0442314E-2,-4.2361242E-1,9.4056934E-2,7.915452E-1,-4.005812E-1,1.7266382E-2,-5.431075E-1,1.3416111E-1,4.7036615E-1,-8.958865E-2,1.0316715E0,-3.9454356E-2,4.5049485E-2,-4.7879902E-1,5.8562785E-1,-2.629339E-3,-5.9458263E-2,1.0791168E-2,-4.5488745E-2,8.147996E-2,-1.7569609E-2,7.096798E-2,-1.9064425E-2,7.30958E-2,1.2546507E-1,-2.0536433E-3,-5.619148E-2,-4.1471873E-4,-3.9036196E-2,8.1705116E-2,-1.5909954E-3,8.0033414E-2],"categories":[],"categories_nodes":[],"categories_segments":[],"categories_sizes":[],"default_left":[0,0,0,0,0,0,0,0,0,0,0,0,0,0,0,0,0,0,0,0,0,0,0,0,0,0,0,0,0,0,0,0,0,0,0,0,0],"id":24,"left_children":[1,3,5,7,9,-1,11,13,15,17,19,21,23,25,27,29,-1,-1,31,33,35,-1,-1,-1,-1,-1,-1,-1,-1,-1,-1,-1,-1,-1,-1,-1,-1],"loss_changes":[2.834972E0,2.6615694E0,1.3856702E0,4.1339927E0,3.3799405E0,0E0,1.4062521E0,3.4537795E0,3.370892E0,1.6175804E0,2.7152483E0,6.229253E-1,2.10731E0,2.652692E0,2.9600244E0,2.1211452E0,0E0,0E0,7.776675E-1,2.1532135E0,2.495929E0,0E0,0E0,0E0,0E0,0E0,0E0,0E0,0E0,0E0,0E0,0E0,0E0,0E0,0E0,0E0,0E0],"parents":[2147483647,0,0,1,1,2,2,3,3,4,4,6,6,7,7,8,8,9,9,10,10,11,11,12,12,13,13,14,14,15,15,18,18,19,19,20,20],"right_children":[2,4,6,8,10,-1,12,14,16,18,20,22,24,26,28,30,-1,-1,32,34,36,-1,-1,-1,-1,-1,-1,-1,-1,-1,-1,-1,-1,-1,-1,-1,-1],"split_conditions":[1.08E1,8.309E1,7.4E0,1.0298E2,7.1958E2,4.0442314E-2,3.73E0,-2.34E1,2.9E0,7.654E1,7.0953E2,6.37E1,2.4916E2,5.9629E2,1.4981E2,5.32E1,-3.9454356E-2,4.5049485E-2,3.071E1,1.9E0,6.1E0,-5.9458263E-2,1.0791168E-2,-4.5488745E-2,8.147996E-2,-1.7569609E-2,7.096798E-2,-1.9064425E-2,7.30958E-2,1.2546507E-1,-2.0536433E-3,-5.619148E-2,-4.1471873E-4,-3.9036196E-2,8.1705116E-2,-1.5909954E-3,8.0033414E-2],"split_indices":[23,8,15,2,17,0,22,21,26,12,7,3,1,7,27,13,0,0,32,14,26,0,0,0,0,0,0,0,0,0,0,0,0,0,0,0,0],"split_type":[0,0,0,0,0,0,0,0,0,0,0,0,0,0,0,0,0,0,0,0,0,0,0,0,0,0,0,0,0,0,0,0,0,0,0,0,0],"sum_hessian":[3.372796E2,3.1681467E2,2.0464931E1,5.7773514E1,2.5904114E2,1.4594646E0,1.9005466E1,4.836713E1,9.406383E0,2.0059021E1,2.3898213E2,1.5673859E1,3.3316088E0,1.5350683E1,3.3016445E1,7.9309373E0,1.4754454E0,1.2877469E0,1.8771275E1,7.1210175E0,2.3186111E2,1.4605698E1,1.0681607E0,1.963769E0,1.3678398E0,4.2210836E0,1.11296E1,3.007961E1,2.936835E0,6.385379E0,1.5455582E0,1.5817621E1,2.9536526E0,1.2332404E0,5.887777E0,2.2905287E2,2.8082345E0],"tree_param":{"num_deleted":"0","num_feature":"35","num_nodes":"37","size_leaf_vector":"1"}},{"base_weights":[-3.8815438E-4,-1.2864734E-1,1.1570525E-1,-3.1675723E-1,1.1701356E-2,5.1888365E-1,8.386102E-2,-1.4346094E-1,-6.3923126E-1,-3.5879305E-1,8.87782E-2,-1.58064E-2,6.545767E-1,5.222113E-1,5.4973852E-2,-1.8898462E-1,6.674417E-2,-7.013977E-2,2.1649051E-2,4.6969044E-1,-5.1846343E-1,-8.646915E-2,3.029948E-1,7.08277E-1,1.1598842E-2,6.3690346E-1,-2.1259068E-2,1.5987875E-1,-8.145967E-2,2.8616622E-2,-2.6328405E-2,7.5661875E-2,-2.4821607E-3,-6.0678776E-2,2.5498543E-2,-1.8258145E-2,5.1426243E-2,5.694109E-2,5.9762956E-3,7.7594705E-2,1.2983319E-2,-1.5292795E-2,7.660001E-2,3.059194E-3,3.316572E-2,-3.915793E-2,1.201722E-2],"categories":[],"categories_nodes":[],"categories_segments":[],"categories_sizes":[],"default_left":[0,0,0,0,0,0,0,0,0,0,0,0,0,0,0,0,0,0,0,0,0,0,0,0,0,0,0,0,0,0,0,0,0,0,0,0,0,0,0,0,0,0,0,0,0,0,0],"id":25,"left_children":[1,3,5,7,9,11,13,15,17,19,21,-1,23,25,27,29,-1,-1,-1,31,33,35,37,39,-1,41,-1,43,45,-1,-1,-1,-1,-1,-1,-1,-1,-1,-1,-1,-1,-1,-1,-1,-1,-1,-1],"loss_changes":[6.2866673E0,5.299511E0,2.8017812E0,4.7001553E0,3.3399558E0,1.5759115E0,2.5872207E0,2.2326584E0,1.7309265E0,2.9087806E0,3.656252E0,0E0,3.0967712E-1,1.2018781E0,2.8029792E0,2.0103176E0,0E0,0E0,0E0,5.551631E-1,1.3411865E0,3.209628E0,2.7998657E0,3.738103E-1,0E0,1.25877E0,0E0,2.44471E0,5.3868003E0,0E0,0E0,0E0,0E0,0E0,0E0,0E0,0E0,0E0,0E0,0E0,0E0,0E0,0E0,0E0,0E0,0E0,0E0],"parents":[2147483647,0,0,1,1,2,2,3,3,4,4,5,5,6,6,7,7,8,8,9,9,10,10,12,12,13,13,14,14,15,15,19,19,20,20,21,21,22,22,23,23,25,25,27,27,28,28],"right_children":[2,4,6,8,10,12,14,16,18,20,22,-1,24,26,28,30,-1,-1,-1,32,34,36,38,40,-1,42,-1,44,46,-1,-1,-1,-1,-1,-1,-1,-1,-1,-1,-1,-1,-1,-1,-1,-1,-1,-1],"split_conditions":[-1E-1,-1.422E1,4.37E1,2.04822E3,-4.9E0,7.9648733E-1,-6.08E0,1.311E1,1.7634E2,4.65E1,-9.1E0,-1.58064E-2,2.8E0,5.2554E2,-1.238E1,-5.223E1,6.674417E-2,-7.013977E-2,2.1649051E-2,-4.36E0,1.14E1,1.16E1,1.755E1,5.027E1,1.1598842E-2,6.63E0,-2.1259068E-2,2.6E0,1.16E1,2.8616622E-2,-2.6328405E-2,7.5661875E-2,-2.4821607E-3,-6.0678776E-2,2.5498543E-2,-1.8258145E-2,5.1426243E-2,5.694109E-2,5.9762956E-3,7.7594705E-2,1.2983319E-2,-1.5292795E-2,7.660001E-2,3.059194E-3,3.316572E-2,-3.915793E-2,1.201722E-2],"split_indices":[26,27,13,17,26,31,24,4,10,3,32,0,25,2,33,32,0,0,0,29,6,16,32,21,0,20,0,26,33,0,0,0,0,0,0,0,0,0,0,0,0,0,0,0,0,0,0],"split_type":[0,0,0,0,0,0,0,0,0,0,0,0,0,0,0,0,0,0,0,0,0,0,0,0,0,0,0,0,0,0,0,0,0,0,0,0,0,0,0,0,0,0,0,0,0,0,0],"sum_hessian":[4.2020633E2,1.995912E2,2.2061511E2,8.474724E1,1.1484397E2,1.5029745E1,2.0558537E2,5.60637E1,2.8683538E1,1.9148E1,9.569597E1,2.4821074E0,1.2547638E1,1.1654581E1,1.9393079E2,5.3809788E1,2.2539103E0,2.6908998E1,1.7745402E0,2.780284E0,1.6367716E1,5.29636E1,4.2732372E1,1.1123501E1,1.4241371E0,1.0196312E1,1.4582684E0,1.0953588E2,8.4394905E1,6.890835E0,4.6918953E1,1.4240079E0,1.3562759E0,1.4883559E1,1.4841564E0,4.6258648E1,6.704949E0,1.9754215E1,2.2978155E1,9.652814E0,1.4706866E0,1.4065061E0,8.789806E0,6.3169937E1,4.6365944E1,3.288072E1,5.151419E1],"tree_param":{"num_deleted":"0","num_feature":"35","num_nodes":"47","size_leaf_vector":"1"}},{"base_weights":[-2.553455E-3,1.2541813E-1,-1.2823047E-1,3.758267E-1,2.8669652E-2,-2.020896E-1,7.848966E-2,9.895324E-2,6.063223E-1,-3.087535E-2,4.5254675E-1,-1.2871204E-1,-4.2572483E-1,3.7382308E-1,-6.651469E-2,-2.0474651E-1,6.713674E-1,6.677452E-1,-1.6702095E-2,5.0877607E-1,-7.094351E-2,5.805305E-2,7.321088E-1,-1.65536E-1,4.481692E-1,1.4434553E-2,-4.6862432E-1,4.971191E-1,-4.556959E-2,-2.1831872E-1,3.779951E-1,3.5185255E-3,-6.275462E-2,8.209186E-2,-7.1858256E-3,-1.655557E-2,7.3702276E-2,-4.2446353E-2,7.469986E-2,-2.899128E-2,3.166647E-3,7.025691E-2,-2.759251E-2,-2.6758348E-3,8.546446E-2,-5.7199206E-3,-3.174638E-2,-3.746962E-2,7.3028974E-2,-2.1451438E-2,-5.3691614E-2,-2.30651E-2,6.639006E-2,4.4811197E-4,-5.3774655E-2,6.183169E-2,-2.059647E-2],"categories":[],"categories_nodes":[],"categories_segments":[],"categories_sizes":[],"default_left":[0,0,0,0,0,0,0,0,0,0,0,0,0,0,0,0,0,0,0,0,0,0,0,0,0,0,0,0,0,0,0,0,0,0,0,0,0,0,0,0,0,0,0,0,0,0,0,0,0,0,0,0,0,0,0,0,0],"id":26,"left_children":[1,3,5,7,9,11,13,15,17,19,21,23,25,27,29,31,33,35,-1,37,39,41,43,45,47,-1,49,51,-1,53,55,-1,-1,-1,-1,-1,-1,-1,-1,-1,-1,-1,-1,-1,-1,-1,-1,-1,-1,-1,-1,-1,-1,-1,-1,-1,-1],"loss_changes":[5.967119E0,4.443078E0,2.8737159E0,3.2044072E0,3.3882604E0,2.21279E0,2.1657727E0,4.3849487E0,1.4281921E0,2.5910158E0,1.780618E0,2.3148916E0,8.919358E-1,1.9257238E0,2.4023452E0,1.7191994E0,1.0263598E0,1.6159992E0,0E0,2.1598885E0,2.500242E0,1.9034613E0,9.145036E-1,1.6258132E0,1.8055243E0,0E0,4.328866E-1,1.9667821E0,0E0,1.8713517E0,1.4069463E0,0E0,0E0,0E0,0E0,0E0,0E0,0E0,0E0,0E0,0E0,0E0,0E0,0E0,0E0,0E0,0E0,0E0,0E0,0E0,0E0,0E0,0E0,0E0,0E0,0E0,0E0],"parents":[2147483647,0,0,1,1,2,2,3,3,4,4,5,5,6,6,7,7,8,8,9,9,10,10,11,11,12,12,13,13,14,14,15,15,16,16,17,17,19,19,20,20,21,21,22,22,23,23,24,24,26,26,27,27,29,29,30,30],"right_children":[2,4,6,8,10,12,14,16,18,20,22,24,26,28,30,32,34,36,-1,38,40,42,44,46,48,-1,50,52,-1,54,56,-1,-1,-1,-1,-1,-1,-1,-1,-1,-1,-1,-1,-1,-1,-1,-1,-1,-1,-1,-1,-1,-1,-1,-1,-1,-1],"split_conditions":[-3E-1,-1.0116E2,5.26E1,1.75557E3,4.3492E2,1.8E0,9.6E0,1.14E1,1.7634E2,-9.7E0,1E1,1.3E1,6.645197E-1,2.82236E3,1.2E1,2.5045E2,1.29E1,9.5E0,-1.6702095E-2,6.2E0,-2.34E1,1.082E1,7.923742E-1,4.96E1,1.1049E2,1.4434553E-2,4.95E1,6.580689E-1,-4.556959E-2,2.15817E3,2.272E1,3.5185255E-3,-6.275462E-2,8.209186E-2,-7.1858256E-3,-1.655557E-2,7.3702276E-2,-4.2446353E-2,7.469986E-2,-2.899128E-2,3.166647E-3,7.025691E-2,-2.759251E-2,-2.6758348E-3,8.546446E-2,-5.7199206E-3,-3.174638E-2,-3.746962E-2,7.3028974E-2,-2.1451438E-2,-5.3691614E-2,-2.30651E-2,6.639006E-2,4.4811197E-4,-5.3774655E-2,6.183169E-2,-2.059647E-2],"split_indices":[26,27,13,7,1,25,6,16,10,23,16,23,30,17,15,11,16,15,0,6,21,14,30,13,12,0,3,30,0,17,22,0,0,0,0,0,0,0,0,0,0,0,0,0,0,0,0,0,0,0,0,0,0,0,0,0,0],"split_type":[0,0,0,0,0,0,0,0,0,0,0,0,0,0,0,0,0,0,0,0,0,0,0,0,0,0,0,0,0,0,0,0,0,0,0,0,0,0,0,0,0,0,0,0,0,0,0,0,0,0,0,0,0,0,0,0,0],"sum_hessian":[3.6901837E2,1.8284108E2,1.8617728E2,5.0151707E1,1.3268938E2,1.3718484E2,4.899244E1,2.3433033E1,2.6718674E1,1.17158455E2,1.5530914E1,1.0447938E2,3.2705463E1,1.5613691E1,3.337875E1,1.5729767E1,7.703266E0,2.4879187E1,1.8394859E0,7.2890697E0,1.09869385E2,6.942258E0,8.588656E0,9.88806E1,5.598777E0,2.123435E0,3.0582027E1,1.3942112E1,1.6715797E0,2.5260813E1,8.117935E0,1.061992E1,5.109847E0,6.32585E0,1.3774161E0,1.8029372E0,2.307625E1,1.323286E0,5.9657836E0,3.447484E1,7.539455E1,1.9928288E0,4.949429E0,1.3026912E0,7.285965E0,5.8524437E1,4.0356163E1,1.3456769E0,4.2531E0,7.3551364E0,2.322689E1,2.527989E0,1.1414123E1,1.5462054E1,9.7987585E0,5.709446E0,2.4084897E0],"tree_param":{"num_deleted":"0","num_feature":"35","num_nodes":"57","size_leaf_vector":"1"}},{"base_weights":[3.930366E-3,-1.316236E-1,6.02608E-2,-3.0335256E-1,2.4528444E-2,3.3210054E-1,2.0512873E-2,-3.679683E-1,5.4615396E-1,1.6107237E-1,-3.7963912E-1,-1.8590471E-1,4.8148555E-1,6.546373E-2,-2.618897E-1,2.476718E-1,-4.4829252E-1,8.72165E-2,1.1673499E-3,3.573824E-1,-2.3419191E-1,1.6741496E-2,-4.9613538E-1,-3.9810273E-1,4.8726656E-2,2.3133723E-1,8.9299136E-1,4.562666E-2,6.930061E-1,4.3506283E-1,-4.2123294E-1,6.2056627E-2,-4.1197833E-2,-6.020194E-2,-2.5866954E-2,5.5435445E-2,-7.562533E-3,-3.4051087E-2,4.5379985E-2,2.5662405E-3,-5.7163205E-2,-5.236104E-2,8.784707E-3,-3.14564E-2,3.9297536E-2,1.0141529E-1,7.5010653E-3,-4.738195E-2,7.326451E-3,1.1296611E-1,-9.394039E-3,1.0651123E-1,-2.243208E-2,-4.939939E-2,5.308301E-2],"categories":[],"categories_nodes":[],"categories_segments":[],"categories_sizes":[],"default_left":[0,0,0,0,0,0,0,0,0,0,0,0,0,0,0,0,0,0,0,0,0,0,0,0,0,0,0,0,0,0,0,0,0,0,0,0,0,0,0,0,0,0,0,0,0,0,0,0,0,0,0,0,0,0,0],"id":27,"left_children":[1,3,5,7,9,11,13,15,17,19,21,23,25,27,29,31,33,-1,-1,35,37,-1,39,41,-1,43,45,47,49,51,53,-1,-1,-1,-1,-1,-1,-1,-1,-1,-1,-1,-1,-1,-1,-1,-1,-1,-1,-1,-1,-1,-1,-1,-1],"loss_changes":[2.5823336E0,2.6699522E0,2.5740807E0,2.8006673E0,2.982072E0,2.4422765E0,2.6760166E0,2.317052E0,6.432922E-1,3.20799E0,9.5384026E-1,1.2691834E0,2.2513022E0,2.2277222E0,3.3995733E0,1.680575E0,1.0049648E0,0E0,0E0,2.370254E0,1.1760604E0,0E0,4.683733E-1,4.286126E-1,0E0,1.5530661E0,7.839451E-1,2.5758312E0,1.9929154E0,2.6822407E0,1.9303422E0,0E0,0E0,0E0,0E0,0E0,0E0,0E0,0E0,0E0,0E0,0E0,0E0,0E0,0E0,0E0,0E0,0E0,0E0,0E0,0E0,0E0,0E0,0E0,0E0],"parents":[2147483647,0,0,1,1,2,2,3,3,4,4,5,5,6,6,7,7,8,8,9,9,10,10,11,11,12,12,13,13,14,14,15,15,16,16,19,19,20,20,22,22,23,23,25,25,26,26,27,27,28,28,29,29,30,30],"right_children":[2,4,6,8,10,12,14,16,18,20,22,24,26,28,30,32,34,-1,-1,36,38,-1,40,42,-1,44,46,48,50,52,54,-1,-1,-1,-1,-1,-1,-1,-1,-1,-1,-1,-1,-1,-1,-1,-1,-1,-1,-1,-1,-1,-1,-1,-1],"split_conditions":[-1.328E1,1.213E1,-2.4821E2,1.25E1,5.12E1,-3.689E1,1.1519719E0,2.1E0,1.4E1,5.568E1,-3.573E1,1.03E1,-3.0487E2,1.1436812E0,7.448455E-1,8.426333E-1,2.0803E2,8.72165E-2,1.1673499E-3,1.072E1,1.41E1,1.6741496E-2,-1.906E1,1.16E1,4.8726656E-2,5.774E1,1.08E1,-1.8677E2,1.04E1,-4E-1,1.3140123E0,6.2056627E-2,-4.1197833E-2,-6.020194E-2,-2.5866954E-2,5.5435445E-2,-7.562533E-3,-3.4051087E-2,4.5379985E-2,2.5662405E-3,-5.7163205E-2,-5.236104E-2,8.784707E-3,-3.14564E-2,3.9297536E-2,1.0141529E-1,7.5010653E-3,-4.738195E-2,7.326451E-3,1.1296611E-1,-9.394039E-3,1.0651123E-1,-2.243208E-2,-4.939939E-2,5.308301E-2],"split_indices":[22,28,27,6,13,32,30,4,6,27,22,5,27,30,31,30,8,0,0,4,5,0,32,15,0,10,6,27,5,24,31,0,0,0,0,0,0,0,0,0,0,0,0,0,0,0,0,0,0,0,0,0,0,0,0],"split_type":[0,0,0,0,0,0,0,0,0,0,0,0,0,0,0,0,0,0,0,0,0,0,0,0,0,0,0,0,0,0,0,0,0,0,0,0,0,0,0,0,0,0,0,0,0,0,0,0,0,0,0,0,0,0,0],"sum_hessian":[3.3614835E2,9.82888E1,2.3785953E2,4.636071E1,5.1928093E1,2.940447E1,2.0845506E2,4.361043E1,2.750281E0,3.926446E1,1.2663631E1,6.5270166E0,2.2877453E1,1.8049355E2,2.7961506E1,4.792812E0,3.881762E1,1.315861E0,1.4344201E0,2.6298847E1,1.2965615E1,2.146555E0,1.05170765E1,5.2733574E0,1.2536594E0,1.5199857E1,7.677597E0,1.7600269E2,4.4908667E0,4.8812075E0,2.30803E1,3.0997818E0,1.69303E0,2.0236843E1,1.8580776E1,1.788352E1,8.415325E0,1.1667623E1,1.2979931E0,1.4127679E0,9.104308E0,4.129357E0,1.1440003E0,3.2562861E0,1.1943571E1,6.478203E0,1.1993937E0,8.075826E0,1.6792686E2,2.6081672E0,1.8826997E0,2.1814702E0,2.6997373E0,2.1888605E1,1.1916933E0],"tree_param":{"num_deleted":"0","num_feature":"35","num_nodes":"55","size_leaf_vector":"1"}},{"base_weights":[-5.972424E-4,-1.9011146E-1,6.7773126E-2,6.1103046E-2,-2.1683528E-1,-1.9831754E-2,1.970601E-1,-1.5706156E-1,-5.6886053E-1,1.4636609E-2,-4.5944947E-1,1.22863375E-1,4.8615402E-1,-2.8994957E-1,5.0836354E-2,-6.247675E-1,2.4925997E-3,-2.4188949E-2,5.2266043E-1,3.293242E-2,-5.767114E-1,-3.512813E-1,1.7629763E-1,6.025809E-1,-1.3592902E-1,-3.740637E-2,2.6232982E-2,-4.8333816E-2,2.3402518E-2,-2.6836354E-2,-6.728658E-2,1.9634014E-2,-1.0111279E-2,-4.6377566E-2,6.9204085E-2,-7.199037E-2,-6.2885233E-3,-5.5631574E-2,5.414887E-2,1.1234249E-2,5.4236114E-2,-1.567478E-2,6.66834E-2,1.2975873E-2,-4.5645118E-2],"categories":[],"categories_nodes":[],"categories_segments":[],"categories_sizes":[],"default_left":[0,0,0,0,0,0,0,0,0,0,0,0,0,0,0,0,0,0,0,0,0,0,0,0,0,0,0,0,0,0,0,0,0,0,0,0,0,0,0,0,0,0,0,0,0],"id":28,"left_children":[1,3,5,-1,7,9,11,13,15,17,19,21,23,25,27,29,-1,31,33,-1,35,37,39,41,43,-1,-1,-1,-1,-1,-1,-1,-1,-1,-1,-1,-1,-1,-1,-1,-1,-1,-1,-1,-1],"loss_changes":[5.4370995E0,2.5142908E0,3.496647E0,0E0,2.1915102E0,2.8059106E0,2.613956E0,2.612894E0,5.25229E-1,3.4105046E0,1.4350302E0,2.60889E0,1.9012346E0,2.7702293E0,3.784889E0,6.06184E-2,0E0,2.7509236E0,2.3718948E0,0E0,8.4373426E-1,2.2261682E0,2.0698364E0,1.1458488E0,4.6595043E-1,0E0,0E0,0E0,0E0,0E0,0E0,0E0,0E0,0E0,0E0,0E0,0E0,0E0,0E0,0E0,0E0,0E0,0E0,0E0,0E0],"parents":[2147483647,0,0,1,1,2,2,4,4,5,5,6,6,7,7,8,8,9,9,10,10,11,11,12,12,13,13,14,14,15,15,17,17,18,18,20,20,21,21,22,22,23,23,24,24],"right_children":[2,4,6,-1,8,10,12,14,16,18,20,22,24,26,28,30,-1,32,34,-1,36,38,40,42,44,-1,-1,-1,-1,-1,-1,-1,-1,-1,-1,-1,-1,-1,-1,-1,-1,-1,-1,-1,-1],"split_conditions":[-1.356E1,-6.349E1,2.8E0,6.1103046E-2,4.7E0,1.1352E2,1.0662388E0,1.78E0,3.0661E2,9.541E1,9.5E0,-4E-1,2.8741E3,4.7267E2,-5E0,5.14E1,2.4925997E-3,7.4E0,8.507808E-1,3.293242E-2,2.96568E3,1.17E1,1.321E1,-1.2E1,1.0541803E0,-3.740637E-2,2.6232982E-2,-4.8333816E-2,2.3402518E-2,-2.6836354E-2,-6.728658E-2,1.9634014E-2,-1.0111279E-2,-4.6377566E-2,6.9204085E-2,-7.199037E-2,-6.2885233E-3,-5.5631574E-2,5.414887E-2,1.1234249E-2,5.4236114E-2,-1.567478E-2,6.66834E-2,1.2975873E-2,-4.5645118E-2],"split_indices":[20,22,23,0,23,10,31,27,27,10,6,25,7,12,26,3,0,16,30,0,17,6,22,29,30,0,0,0,0,0,0,0,0,0,0,0,0,0,0,0,0,0,0,0,0],"split_type":[0,0,0,0,0,0,0,0,0,0,0,0,0,0,0,0,0,0,0,0,0,0,0,0,0,0,0,0,0,0,0,0,0,0,0,0,0,0,0,0,0,0,0,0,0],"sum_hessian":[4.1762695E2,1.102492E2,3.0737778E2,2.853088E0,1.0739611E2,1.8372932E2,1.2364844E2,9.304353E1,1.435258E1,1.7126773E2,1.2461594E1,9.9529045E1,2.4119392E1,5.6520832E1,3.6522697E1,1.3069838E1,1.2827429E0,1.5999272E2,1.1275005E1,1.3787633E0,1.108283E1,9.515947E0,9.00131E1,2.0343353E1,3.7760398E0,4.9330338E1,7.190496E0,8.908178E0,2.761452E1,2.336449E0,1.0733389E1,4.0974007E1,1.1901872E2,1.3976E0,9.877406E0,8.353754E0,2.7290761E0,8.045155E0,1.4707928E0,7.77383E1,1.2274805E1,1.4748113E0,1.8868542E1,2.3900447E0,1.3859951E0],"tree_param":{"num_deleted":"0","num_feature":"35","num_nodes":"45","size_leaf_vector":"1"}},{"base_weights":[-2.9255133E-3,1.8340656E-1,-7.826618E-2,3.8543117E-1,4.674531E-2,-2.652025E-2,-2.8422698E-1,4.3004534E-1,-4.4748485E-2,1.704358E-1,-4.31975E-1,-1.8416862E-1,7.9894125E-2,-3.4145835E-1,8.051599E-2,5.0792223E-1,-1.4252523E-1,2.3634353E-1,-5.5167843E-2,-7.14739E-2,-6.131632E-2,-5.7548904E-1,-6.9219016E-2,-8.6388E-3,3.7814337E-1,-5.559368E-1,-1.548915E-1,-2.0785568E-2,5.5242028E-2,3.817275E-2,-5.1190503E-2,-1.0940198E-2,3.8279828E-2,-5.117461E-2,5.435876E-2,7.487412E-3,-6.2167495E-2,-1.2112693E-2,6.600367E-2,3.4651287E-2,-1.1453125E-2,5.219966E-2,-3.7899733E-2,6.360683E-3,-5.9661724E-2,6.661084E-2,-2.7878745E-2],"categories":[],"categories_nodes":[],"categories_segments":[],"categories_sizes":[],"default_left":[0,0,0,0,0,0,0,0,0,0,0,0,0,0,0,0,0,0,0,0,0,0,0,0,0,0,0,0,0,0,0,0,0,0,0,0,0,0,0,0,0,0,0,0,0,0,0],"id":29,"left_children":[1,3,5,7,9,11,13,15,-1,17,19,21,23,25,-1,27,29,31,-1,33,-1,35,37,39,41,43,45,-1,-1,-1,-1,-1,-1,-1,-1,-1,-1,-1,-1,-1,-1,-1,-1,-1,-1,-1,-1],"loss_changes":[5.1733136E0,2.9114702E0,2.7888448E0,1.7782884E0,3.8887315E0,3.5511239E0,3.553265E0,1.9013252E0,0E0,2.601314E0,8.387637E-1,3.7950292E0,3.344751E0,1.9410152E0,0E0,1.2717972E0,1.2976028E0,2.4863758E0,0E0,1.8085915E0,0E0,6.2387466E-1,2.6174216E0,3.7462935E0,3.3551989E0,6.2217903E-1,3.082539E0,0E0,0E0,0E0,0E0,0E0,0E0,0E0,0E0,0E0,0E0,0E0,0E0,0E0,0E0,0E0,0E0,0E0,0E0,0E0,0E0],"parents":[2147483647,0,0,1,1,2,2,3,3,4,4,5,5,6,6,7,7,9,9,10,10,11,11,12,12,13,13,15,15,16,16,17,17,19,19,21,21,22,22,23,23,24,24,25,25,26,26],"right_children":[2,4,6,8,10,12,14,16,-1,18,20,22,24,26,-1,28,30,32,-1,34,-1,36,38,40,42,44,46,-1,-1,-1,-1,-1,-1,-1,-1,-1,-1,-1,-1,-1,-1,-1,-1,-1,-1,-1,-1],"split_conditions":[-1.464E1,-9.602E1,1.0635464E0,6.22E1,1.79E0,-9E-1,5.38E1,4.428E1,-4.4748485E-2,-3E-1,2.4475E2,7.4E0,1.1045288E0,-1.921E1,8.051599E-2,-5.6671E2,1.163E1,3.81E0,-5.5167843E-2,1.05E0,-6.131632E-2,-3.0487E2,1.1599E2,5E-2,3.19E0,2.083E1,9.3176454E-1,-2.0785568E-2,5.5242028E-2,3.817275E-2,-5.1190503E-2,-1.0940198E-2,3.8279828E-2,-5.117461E-2,5.435876E-2,7.487412E-3,-6.2167495E-2,-1.2112693E-2,6.600367E-2,3.4651287E-2,-1.1453125E-2,5.219966E-2,-3.7899733E-2,6.360683E-3,-5.9661724E-2,6.661084E-2,-2.7878745E-2],"split_indices":[20,27,31,13,29,24,19,9,0,26,11,16,30,28,0,27,4,14,0,22,0,27,10,24,24,10,30,0,0,0,0,0,0,0,0,0,0,0,0,0,0,0,0,0,0,0,0],"split_type":[0,0,0,0,0,0,0,0,0,0,0,0,0,0,0,0,0,0,0,0,0,0,0,0,0,0,0,0,0,0,0,0,0,0,0,0,0,0,0,0,0,0,0,0,0,0,0],"sum_hessian":[3.6648956E2,1.0510648E2,2.613831E2,4.167642E1,6.3430065E1,2.0980107E2,5.1582005E1,4.0016663E1,1.6597583E0,5.0917988E1,1.2512078E1,8.425307E1,1.25548004E2,4.965967E1,1.9223323E0,3.532493E1,4.691733E0,4.7275806E1,3.642181E0,4.6515646E0,7.8605137E0,1.8220152E1,6.603291E1,9.7559326E1,2.7988678E1,2.2180733E1,2.7478937E1,1.8526568E0,3.347227E1,1.9254935E0,2.7662396E0,1.4142249E1,3.3133556E1,2.8088877E0,1.842677E0,1.1669328E0,1.7053219E1,6.2423553E1,3.6093612E0,2.1885489E1,7.567384E1,2.3780972E1,4.2077055E0,1.331964E0,2.084877E1,3.0292397E0,2.4449697E1],"tree_param":{"num_deleted":"0","num_feature":"35","num_nodes":"47","size_leaf_vector":"1"}},{"base_weights":[4.5493864E-3,2.611064E-2,-3.2801732E-1,1.4245182E-1,-3.9678354E-2,4.009393E-2,-4.04842E-1,1.09220974E-1,7.366377E-1,4.0654622E-2,-2.1025607E-1,-5.280145E-1,1.417041E-1,1.4136717E-1,-5.2001696E-2,1.1086605E-1,-3.5237644E-2,2.5415003E-1,-6.766562E-2,-2.7135274E-1,2.8244418E-1,-5.808272E-2,1.1001057E-2,-4.4205595E-2,7.908233E-2,6.674283E-3,4.5200054E-2,4.384131E-2,-4.1890334E-2,-2.7241176E-2,1.0821936E-2,-3.8802173E-2,-1.092304E-3,9.386335E-2,-1.789218E-2],"categories":[],"categories_nodes":[],"categories_segments":[],"categories_sizes":[],"default_left":[0,0,0,0,0,0,0,0,0,0,0,0,0,0,0,0,0,0,0,0,0,0,0,0,0,0,0,0,0,0,0,0,0,0,0],"id":30,"left_children":[1,3,5,7,9,-1,11,13,15,17,19,21,23,25,-1,-1,-1,27,29,31,33,-1,-1,-1,-1,-1,-1,-1,-1,-1,-1,-1,-1,-1,-1],"loss_changes":[2.4138432E0,2.4238565E0,1.31019E0,2.177261E0,2.7847679E0,0E0,1.3566115E0,2.287628E0,2.7736862E0,3.2217925E0,2.0341167E0,5.946102E-1,1.9752965E0,2.4021025E0,0E0,0E0,0E0,5.9942217E0,3.3684757E0,1.7690759E0,2.4881709E0,0E0,0E0,0E0,0E0,0E0,0E0,0E0,0E0,0E0,0E0,0E0,0E0,0E0,0E0],"parents":[2147483647,0,0,1,1,2,2,3,3,4,4,6,6,7,7,8,8,9,9,10,10,11,11,12,12,13,13,17,17,18,18,19,19,20,20],"right_children":[2,4,6,8,10,-1,12,14,16,18,20,22,24,26,-1,-1,-1,28,30,32,34,-1,-1,-1,-1,-1,-1,-1,-1,-1,-1,-1,-1,-1,-1],"split_conditions":[1.08E1,8.4E0,7.4E0,3.449E2,5.892E1,4.009393E-2,3.73E0,4.4644E2,4.662E1,4.53E0,1.2822E2,6.37E1,2.4916E2,2.4526E2,-5.2001696E-2,1.1086605E-1,-3.5237644E-2,4E0,5.05E1,1.09E1,3.144E1,-5.808272E-2,1.1001057E-2,-4.4205595E-2,7.908233E-2,6.674283E-3,4.5200054E-2,4.384131E-2,-4.1890334E-2,-2.7241176E-2,1.0821936E-2,-3.8802173E-2,-1.092304E-3,9.386335E-2,-1.789218E-2],"split_indices":[23,6,15,8,27,0,22,11,19,4,10,3,1,18,0,0,0,26,13,15,9,0,0,0,0,0,0,0,0,0,0,0,0,0,0],"split_type":[0,0,0,0,0,0,0,0,0,0,0,0,0,0,0,0,0,0,0,0,0,0,0,0,0,0,0,0,0,0,0,0,0,0,0],"sum_hessian":[3.3443823E2,3.149412E2,1.9497051E1,1.13342E2,2.0159918E2,1.4566485E0,1.8040403E1,1.08460014E2,4.8819942E0,1.3757185E2,6.402731E1,1.475014E1,3.2902625E0,1.03926025E2,4.533986E0,3.6254487E0,1.2565454E0,4.58523E1,9.171956E1,5.7363308E1,6.6640105E0,1.3705328E1,1.0448128E0,1.9002962E0,1.3899662E0,8.4775116E1,1.915091E1,3.6270954E1,9.581346E0,4.2128887E1,4.959067E1,3.9277565E1,1.8085741E1,2.324073E0,4.3399377E0],"tree_param":{"num_deleted":"0","num_feature":"35","num_nodes":"35","size_leaf_vector":"1"}},{"base_weights":[-7.8728737E-4,-1.1452901E-1,1.0077292E-1,-2.8671533E-1,1.0846216E-2,4.0118313E-1,5.985361E-2,-1.2215402E-1,-6.067403E-1,-3.2975176E-1,8.010779E-2,-1.3142423E-1,4.9857563E-1,